{"learner":{"attributes":{"best_iteration":"214","best_score":"0.0068103695557705"},"feature_names":["segment_id","time_step","load_cycles","wear_level","alignment_deviation","vibration_index","environment_factor","degradation_rate","risk_score"],"feature_types":["int","int","int","float","float","float","float","float","float"],"gradient_booster":{"model":{"cats":{"enc":[],"feature_segments":[],"sorted_idx":[]},"gbtree_model_param":{"num_parallel_tree":"1","num_trees":"940"},"iteration_indptr":[0,4,8,12,16,20,24,28,32,36,40,44,48,52,56,60,64,68,72,76,80,84,88,92,96,100,104,108,112,116,120,124,128,132,136,140,144,148,152,156,160,164,168,172,176,180,184,188,192,196,200,204,208,212,216,220,224,228,232,236,240,244,248,252,256,260,264,268,272,276,280,284,288,292,296,300,304,308,312,316,320,324,328,332,336,340,344,348,352,356,360,364,368,372,376,380,384,388,392,396,400,404,408,412,416,420,424,428,432,436,440,444,448,452,456,460,464,468,472,476,480,484,488,492,496,500,504,508,512,516,520,524,528,532,536,540,544,548,552,556,560,564,568,572,576,580,584,588,592,596,600,604,608,612,616,620,624,628,632,636,640,644,648,652,656,660,664,668,672,676,680,684,688,692,696,700,704,708,712,716,720,724,728,732,736,740,744,748,752,756,760,764,768,772,776,780,784,788,792,796,800,804,808,812,816,820,824,828,832,836,840,844,848,852,856,860,864,868,872,876,880,884,888,892,896,900,904,908,912,916,920,924,928,932,936,940],"tree_info":[0,1,2,3,0,1,2,3,0,1,2,3,0,1,2,3,0,1,2,3,0,1,2,3,0,1,2,3,0,1,2,3,0,1,2,3,0,1,2,3,0,1,2,3,0,1,2,3,0,1,2,3,0,1,2,3,0,1,2,3,0,1,2,3,0,1,2,3,0,1,2,3,0,1,2,3,0,1,2,3,0,1,2,3,0,1,2,3,0,1,2,3,0,1,2,3,0,1,2,3,0,1,2,3,0,1,2,3,0,1,2,3,0,1,2,3,0,1,2,3,0,1,2,3,0,1,2,3,0,1,2,3,0,1,2,3,0,1,2,3,0,1,2,3,0,1,2,3,0,1,2,3,0,1,2,3,0,1,2,3,0,1,2,3,0,1,2,3,0,1,2,3,0,1,2,3,0,1,2,3,0,1,2,3,0,1,2,3,0,1,2,3,0,1,2,3,0,1,2,3,0,1,2,3,0,1,2,3,0,1,2,3,0,1,2,3,0,1,2,3,0,1,2,3,0,1,2,3,0,1,2,3,0,1,2,3,0,1,2,3,0,1,2,3,0,1,2,3,0,1,2,3,0,1,2,3,0,1,2,3,0,1,2,3,0,1,2,3,0,1,2,3,0,1,2,3,0,1,2,3,0,1,2,3,0,1,2,3,0,1,2,3,0,1,2,3,0,1,2,3,0,1,2,3,0,1,2,3,0,1,2,3,0,1,2,3,0,1,2,3,0,1,2,3,0,1,2,3,0,1,2,3,0,1,2,3,0,1,2,3,0,1,2,3,0,1,2,3,0,1,2,3,0,1,2,3,0,1,2,3,0,1,2,3,0,1,2,3,0,1,2,3,0,1,2,3,0,1,2,3,0,1,2,3,0,1,2,3,0,1,2,3,0,1,2,3,0,1,2,3,0,1,2,3,0,1,2,3,0,1,2,3,0,1,2,3,0,1,2,3,0,1,2,3,0,1,2,3,0,1,2,3,0,1,2,3,0,1,2,3,0,1,2,3,0,1,2,3,0,1,2,3,0,1,2,3,0,1,2,3,0,1,2,3,0,1,2,3,0,1,2,3,0,1,2,3,0,1,2,3,0,1,2,3,0,1,2,3,0,1,2,3,0,1,2,3,0,1,2,3,0,1,2,3,0,1,2,3,0,1,2,3,0,1,2,3,0,1,2,3,0,1,2,3,0,1,2,3,0,1,2,3,0,1,2,3,0,1,2,3,0,1,2,3,0,1,2,3,0,1,2,3,0,1,2,3,0,1,2,3,0,1,2,3,0,1,2,3,0,1,2,3,0,1,2,3,0,1,2,3,0,1,2,3,0,1,2,3,0,1,2,3,0,1,2,3,0,1,2,3,0,1,2,3,0,1,2,3,0,1,2,3,0,1,2,3,0,1,2,3,0,1,2,3,0,1,2,3,0,1,2,3,0,1,2,3,0,1,2,3,0,1,2,3,0,1,2,3,0,1,2,3,0,1,2,3,0,1,2,3,0,1,2,3,0,1,2,3,0,1,2,3,0,1,2,3,0,1,2,3,0,1,2,3,0,1,2,3,0,1,2,3,0,1,2,3,0,1,2,3,0,1,2,3,0,1,2,3,0,1,2,3,0,1,2,3,0,1,2,3,0,1,2,3,0,1,2,3,0,1,2,3,0,1,2,3,0,1,2,3,0,1,2,3,0,1,2,3,0,1,2,3,0,1,2,3,0,1,2,3,0,1,2,3,0,1,2,3,0,1,2,3,0,1,2,3,0,1,2,3,0,1,2,3,0,1,2,3,0,1,2,3,0,1,2,3,0,1,2,3,0,1,2,3,0,1,2,3,0,1,2,3,0,1,2,3,0,1,2,3,0,1,2,3,0,1,2,3,0,1,2,3,0,1,2,3,0,1,2,3,0,1,2,3,0,1,2,3,0,1,2,3,0,1,2,3,0,1,2,3,0,1,2,3,0,1,2,3,0,1,2,3,0,1,2,3,0,1,2,3,0,1,2,3,0,1,2,3,0,1,2,3,0,1,2,3,0,1,2,3,0,1,2,3,0,1,2,3,0,1,2,3,0,1,2,3,0,1,2,3,0,1,2,3,0,1,2,3,0,1,2,3,0,1,2,3,0,1,2,3],"trees":[{"base_weights":[1.0228632E-1,-6.7662764E-1,5.741369E-1,-3.3902608E-2,-2.7018124E-1,1.8900654E0,-5.549253E-1,2.8008861E-2,-4.1828227E-1,1.8970208E0,1.205222E0,-8.4275976E-2,-3.3897582E-2,-4.0746084E-3,-2.8936718E-2,4.3131933E-2,9.503979E-2,4.001138E-2,8.551442E-2,-2.8430207E-2,9.4181046E-2],"categories":[],"categories_nodes":[],"categories_segments":[],"categories_sizes":[],"default_left":[0,0,0,0,0,0,0,0,0,0,0,0,0,0,0,0,0,0,0,0,0],"id":0,"left_children":[1,3,5,-1,7,9,11,-1,13,15,17,19,-1,-1,-1,-1,-1,-1,-1,-1,-1],"loss_changes":[2.733951E3,1.4415283E0,6.883605E3,0E0,1.6440239E0,7.9038086E0,1.443487E2,0E0,5.094708E-1,6.623535E0,3.592022E0,4.9474332E2,0E0,0E0,0E0,0E0,0E0,0E0,0E0,0E0,0E0],"parents":[2147483647,0,0,1,1,2,2,4,4,5,5,6,6,8,8,9,9,10,10,11,11],"right_children":[2,4,6,-1,8,10,12,-1,14,16,18,20,-1,-1,-1,-1,-1,-1,-1,-1,-1],"split_conditions":[4.53E-1,4.72E0,6.82E-1,-3.3902608E-2,1.8E-2,6.79E-1,7.46E-1,2.8008861E-2,4.18E-1,5.15E0,8E0,9E0,-3.3897582E-2,-4.0746084E-3,-2.8936718E-2,4.3131933E-2,9.503979E-2,4.001138E-2,8.551442E-2,-2.8430207E-2,9.4181046E-2],"split_indices":[8,4,3,0,7,3,3,0,3,4,0,0,0,0,0,0,0,0,0,0,0],"split_type":[0,0,0,0,0,0,0,0,0,0,0,0,0,0,0,0,0,0,0,0,0],"sum_hessian":[7.4366367E3,2.8053054E3,4.631331E3,2.7948423E3,1.046322E1,2.138372E3,2.492959E3,1.16258E0,9.30064E0,2.1151206E3,2.32516E1,5.169606E2,1.9759984E3,3.48774E0,5.8129E0,8.525586E0,2.106595E3,1.4338487E1,8.913114E0,4.154286E2,1.0153198E2],"tree_param":{"num_deleted":"0","num_feature":"9","num_nodes":"21","size_leaf_vector":"1"}},{"base_weights":[-1.031811E-2,2.014491E0,-3.3209976E-2,1.0101085E-1,1.5891035E0,8.175835E-2,3.0807419E-2],"categories":[],"categories_nodes":[],"categories_segments":[],"categories_sizes":[],"default_left":[0,0,0,0,0,0,0],"id":1,"left_children":[1,3,-1,-1,5,-1,-1],"loss_changes":[9.442589E3,1.0297852E0,0E0,0E0,2.3880768E-1,0E0,0E0],"parents":[2147483647,0,0,1,1,4,4],"right_children":[2,4,-1,-1,6,-1,-1],"split_conditions":[3.01E-1,2.98E-1,-3.3209976E-2,1.0101085E-1,8.87E2,8.175835E-2,3.0807419E-2],"split_indices":[3,3,0,0,2,0,0],"split_type":[0,0,0,0,0,0,0],"sum_hessian":[7.1299346E3,1.7399438E3,5.3899907E3,1.7131354E3,2.6808464E1,2.4946766E1,1.8616989E0],"tree_param":{"num_deleted":"0","num_feature":"9","num_nodes":"7","size_leaf_vector":"1"}},{"base_weights":[1.3830377E-1,-6.7818254E-1,1.7976813E0,-6.8017006E-1,6.6419974E-2,-4.840392E-1,9.336003E-2,-3.4127954E-2,-1.814692E-1,-3.3585556E-2,4.680153E-1,-3.2135274E-2,3.45557E-2,6.4268775E-2,-1.9920468E-3],"categories":[],"categories_nodes":[],"categories_segments":[],"categories_sizes":[],"default_left":[0,0,0,0,0,0,0,0,0,0,0,0,0,0,0],"id":2,"left_children":[1,3,5,7,-1,9,-1,-1,11,-1,13,-1,-1,-1,-1],"loss_changes":[1.015967E4,2.0947021E1,3.9316064E2,5.8588867E0,0E0,1.3520151E1,0E0,0E0,1.06279335E1,0E0,5.3477693E0,0E0,0E0,0E0,0E0],"parents":[2147483647,0,0,1,1,2,2,3,3,5,5,8,8,10,10],"right_children":[2,4,6,8,-1,10,-1,-1,12,-1,14,-1,-1,-1,-1],"split_conditions":[2.009E3,7.46E-1,6.82E-1,1.998E3,6.6419974E-2,6.79E-1,9.336003E-2,-3.4127954E-2,6.76E-1,-3.3585556E-2,2.043E3,-3.2135274E-2,3.45557E-2,6.4268775E-2,-1.9920468E-3],"split_indices":[1,3,3,1,0,3,0,0,3,0,1,0,0,0,0],"split_type":[0,0,0,0,0,0,0,0,0,0,0,0,0,0,0],"sum_hessian":[7.496792E3,5.024908E3,2.4718833E3,5.0205967E3,4.31188E0,7.290997E1,2.3989734E3,4.9962935E3,2.4303326E1,6.1150303E1,1.1759673E1,1.6071554E1,8.231771E0,3.919891E0,7.839782E0],"tree_param":{"num_deleted":"0","num_feature":"9","num_nodes":"15","size_leaf_vector":"1"}},{"base_weights":[-2.5236213E-1,3.7950048E-1,-3.213326E-2,-6.357046E-1,2.227887E0,-3.2121133E-2,-2.1036306E-1,1.12338655E-1,4.4756597E-1,-2.9030284E-2,9.53299E-4,-2.2741526E-2,3.835083E-2],"categories":[],"categories_nodes":[],"categories_segments":[],"categories_sizes":[],"default_left":[0,0,0,0,0,0,0,0,0,0,0,0,0],"id":3,"left_children":[1,3,-1,5,7,-1,9,-1,11,-1,-1,-1,-1],"loss_changes":[1.6358851E3,4.7547524E3,0E0,4.5392456E0,2.919629E1,0E0,2.2979755E0,0E0,3.4269319E0,0E0,0E0,0E0,0E0],"parents":[2147483647,0,0,1,1,3,3,4,4,6,6,8,8],"right_children":[2,4,-1,6,8,-1,10,-1,12,-1,-1,-1,-1],"split_conditions":[5.15E0,3.01E-1,-3.213326E-2,2.98E-1,4.51E1,-3.2121133E-2,1.86E1,1.12338655E-1,4.18E-1,-2.9030284E-2,9.53299E-4,-2.2741526E-2,3.835083E-2],"split_indices":[4,3,0,3,5,0,5,0,3,0,0,0,0],"split_type":[0,0,0,0,0,0,0,0,0,0,0,0,0],"sum_hessian":[6.63129E3,2.532098E3,4.0991924E3,1.634838E3,8.9725995E2,1.6089156E3,2.5922379E1,8.875823E2,9.677689E0,9.332056E0,1.6590322E1,2.4194221E0,7.258266E0],"tree_param":{"num_deleted":"0","num_feature":"9","num_nodes":"13","size_leaf_vector":"1"}},{"base_weights":[9.534399E-2,-6.687257E-1,5.403193E-1,-3.3490397E-2,-5.384535E-1,1.7086805E0,-6.165491E-1,-9.558797E-2,-3.2035626E-2,1.7301441E0,8.4941417E-1,1.4823378E0,-3.348301E-2,2.1909114E-2,-2.5340391E-2,1.6743157E-2,8.6549394E-2,8.28703E-2,-1.629433E-2,8.480331E-2,3.167432E-2],"categories":[],"categories_nodes":[],"categories_segments":[],"categories_sizes":[],"default_left":[0,0,0,0,0,0,0,0,0,0,0,0,0,0,0,0,0,0,0,0,0],"id":4,"left_children":[1,3,5,-1,7,9,11,13,-1,15,17,19,-1,-1,-1,-1,-1,-1,-1,-1,-1],"loss_changes":[2.5244465E3,2.4780273E-2,6.343223E3,0E0,1.1892929E0,4.1590332E1,2.638971E2,1.6170524E0,0E0,2.1015625E0,5.6438835E1,9.541946E0,0E0,0E0,0E0,0E0,0E0,0E0,0E0,0E0,0E0],"parents":[2147483647,0,0,1,1,2,2,4,4,5,5,6,6,7,7,9,9,10,10,11,11],"right_children":[2,4,6,-1,8,10,12,14,-1,16,18,20,-1,-1,-1,-1,-1,-1,-1,-1,-1],"split_conditions":[4.51E1,4.25E-1,2.02E3,-3.3490397E-2,4.15E-1,1.998E3,6.82E-1,3.3E-2,-3.2035626E-2,9.61E2,6.79E-1,6.79E-1,-3.348301E-2,2.1909114E-2,-2.5340391E-2,1.6743157E-2,8.6549394E-2,8.28703E-2,-1.629433E-2,8.480331E-2,3.167432E-2],"split_indices":[5,8,1,0,3,1,3,7,0,1,3,3,0,0,0,0,0,0,0,0,0],"split_type":[0,0,0,0,0,0,0,0,0,0,0,0,0,0,0,0,0,0,0,0,0],"sum_hessian":[7.422951E3,2.731748E3,4.691203E3,2.7051343E3,2.6613625E1,2.333771E3,2.3574324E3,5.355343E0,2.1258282E1,2.2759075E3,5.786346E1,5.7517082E1,2.2999153E3,2.3018873E0,3.0534554E0,1.6158972E0,2.2742915E3,3.404685E1,2.381661E1,4.515072E1,1.2366365E1],"tree_param":{"num_deleted":"0","num_feature":"9","num_nodes":"21","size_leaf_vector":"1"}},{"base_weights":[-1.1570405E-2,1.8241702E0,-3.283743E-2,9.1448754E-2,1.4459479E0,1.4929869E0,1.911436E-2,8.0930464E-2,4.8636783E-2],"categories":[],"categories_nodes":[],"categories_segments":[],"categories_sizes":[],"default_left":[0,0,0,0,0,0,0,0,0],"id":5,"left_children":[1,3,-1,-1,5,7,-1,-1,-1],"loss_changes":[8.4461E3,7.2558594E-1,0E0,0E0,8.3213425E-1,1.5791702E-1,0E0,0E0,0E0],"parents":[2147483647,0,0,1,1,4,4,5,5],"right_children":[2,4,-1,-1,6,8,-1,-1,-1],"split_conditions":[3.01E-1,2.98E-1,-3.283743E-2,9.1448754E-2,8.87E2,5.7E-1,1.911436E-2,8.0930464E-2,4.8636783E-2],"split_indices":[3,3,0,0,2,4,0,0,0],"split_type":[0,0,0,0,0,0,0,0,0],"sum_hessian":[7.129231E3,1.853525E3,5.275706E3,1.8264861E3,2.7038992E1,2.5507334E1,1.5316575E0,1.8845581E1,6.6617527E0],"tree_param":{"num_deleted":"0","num_feature":"9","num_nodes":"9","size_leaf_vector":"1"}},{"base_weights":[1.271442E-1,-6.6927797E-1,1.5963354E0,-6.7351186E-1,1.9535716E-1,1.1641393E0,8.5229725E-2,-3.3696007E-2,-4.893524E-1,4.5685273E-1,-4.5521826E-1,1.6068559E0,-6.5826553E-1,-9.040325E-4,-2.7222196E-2,4.9663545E-3,6.3316874E-2,-9.343537E-4,-2.8215215E-2,7.097321E-2,8.5125E-2,-3.3365604E-2,-1.7983338E-2],"categories":[],"categories_nodes":[],"categories_segments":[],"categories_sizes":[],"default_left":[0,0,0,0,0,0,0,0,0,0,0,0,0,0,0,0,0,0,0,0,0,0,0],"id":6,"left_children":[1,3,5,7,9,11,-1,-1,13,15,17,19,21,-1,-1,-1,-1,-1,-1,-1,-1,-1,-1],"loss_changes":[8.834099E3,1.8054688E1,1.2219238E2,3.6621094E-2,4.398545E0,4.325155E2,0E0,0E0,3.648107E-1,5.103732E0,3.4961128E-1,5.2998047E0,4.424286E-2,0E0,0E0,0E0,0E0,0E0,0E0,0E0,0E0,0E0,0E0],"parents":[2147483647,0,0,1,1,2,2,3,3,4,4,5,5,8,8,9,9,10,10,11,11,12,12],"right_children":[2,4,6,8,10,12,-1,-1,14,16,18,20,22,-1,-1,-1,-1,-1,-1,-1,-1,-1,-1],"split_conditions":[6.82E-1,6.79E-1,7.46E-1,8.06E1,8E0,9E0,8.5229725E-2,-3.3696007E-2,1.2E-2,7E0,8.4E-1,7.03E-1,8.46E1,-9.040325E-4,-2.7222196E-2,4.9663545E-3,6.3316874E-2,-9.343537E-4,-2.8215215E-2,7.097321E-2,8.5125E-2,-3.3365604E-2,-1.7983338E-2],"split_indices":[3,3,3,5,0,0,0,0,7,0,6,3,5,0,0,0,0,0,0,0,0,0,0],"split_type":[0,0,0,0,0,0,0,0,0,0,0,0,0,0,0,0,0,0,0,0,0,0,0],"sum_hessian":[7.547976E3,4.8950186E3,2.6529573E3,4.8713857E3,2.3632694E1,5.3377075E2,2.1191865E3,4.8579556E3,1.343028E1,1.7069473E1,6.563219E0,4.2954074E2,1.0423002E2,1.5446873E0,1.1885592E1,1.2618816E1,4.4506574E0,1.546375E0,5.0168443E0,1.5050441E2,2.7903632E2,9.996656E1,4.2634583E0],"tree_param":{"num_deleted":"0","num_feature":"9","num_nodes":"23","size_leaf_vector":"1"}},{"base_weights":[-2.475285E-1,3.7053546E-1,-3.1826466E-2,-6.2818336E-1,1.9926138E0,-3.181958E-2,-1.03130355E-1,1.00419424E-1,3.6584932E-1,-2.8668523E-2,9.128617E-3,-1.6529074E-2,4.419144E-2],"categories":[],"categories_nodes":[],"categories_segments":[],"categories_sizes":[],"default_left":[0,0,0,0,0,0,0,0,0,0,0,0,0],"id":7,"left_children":[1,3,-1,5,7,-1,9,-1,11,-1,-1,-1,-1],"loss_changes":[1.5780759E3,4.108921E3,0E0,6.70105E0,2.4067139E1,0E0,3.5119338E0,0E0,4.081621E0,0E0,0E0,0E0,0E0],"parents":[2147483647,0,0,1,1,3,3,4,4,6,6,8,8],"right_children":[2,4,-1,6,8,-1,10,-1,12,-1,-1,-1,-1],"split_conditions":[5.15E0,3.01E-1,-3.1826466E-2,2.98E-1,4.51E1,-3.181958E-2,1.86E1,1.00419424E-1,5.35E2,-2.8668523E-2,9.128617E-3,-1.6529074E-2,4.419144E-2],"split_indices":[4,3,0,3,5,0,5,0,2,0,0,0,0],"split_type":[0,0,0,0,0,0,0,0,0,0,0,0,0],"sum_hessian":[6.561647E3,2.5345981E3,4.0270486E3,1.5691068E3,9.6549133E2,1.5447456E3,2.4361233E1,9.559866E2,9.504732E0,8.826597E0,1.55346365E1,4.208342E0,5.29639E0],"tree_param":{"num_deleted":"0","num_feature":"9","num_nodes":"13","size_leaf_vector":"1"}},{"base_weights":[9.749125E-2,-6.611804E-1,5.178864E-1,-3.309593E-2,-3.6574802E-1,1.5826033E0,-5.3803205E-1,1.4881183E-1,-2.8232843E-2,1.589519E0,9.168118E-1,-7.86957E-2,-3.3041704E-2,2.8491957E-2,-1.7481534E-2,3.7063703E-2,7.966226E-2,2.9600203E-2,6.907624E-2,-2.7239535E-2,7.874637E-2],"categories":[],"categories_nodes":[],"categories_segments":[],"categories_sizes":[],"default_left":[0,0,0,0,0,0,0,0,0,0,0,0,0,0,0,0,0,0,0,0,0],"id":8,"left_children":[1,3,5,-1,7,9,11,13,-1,15,17,19,-1,-1,-1,-1,-1,-1,-1,-1,-1],"loss_changes":[2.380016E3,3.3825684E-1,5.3988984E3,0E0,9.9154234E-1,9.551758E0,1.3597052E2,8.840819E-1,0E0,6.2944336E0,3.2489986E0,3.9380402E2,0E0,0E0,0E0,0E0,0E0,0E0,0E0,0E0,0E0],"parents":[2147483647,0,0,1,1,2,2,4,4,5,5,6,6,7,7,9,9,10,10,11,11],"right_children":[2,4,6,-1,8,10,12,14,-1,16,18,20,-1,-1,-1,-1,-1,-1,-1,-1,-1],"split_conditions":[4.51E1,4.72E0,6.82E-1,-3.309593E-2,3.3E-2,6.79E-1,7.46E-1,4.22E-1,-2.8232843E-2,5.15E0,8E0,9E0,-3.3041704E-2,2.8491957E-2,-1.7481534E-2,3.7063703E-2,7.966226E-2,2.9600203E-2,6.907624E-2,-2.7239535E-2,7.874637E-2],"split_indices":[5,4,3,0,7,3,3,3,0,4,0,0,0,0,0,0,0,0,0,0,0],"split_type":[0,0,0,0,0,0,0,0,0,0,0,0,0,0,0,0,0,0,0,0,0],"sum_hessian":[7.460152E3,2.6597058E3,4.8004463E3,2.651839E3,7.8667316E0,2.390016E3,2.41043E3,2.2633924E0,5.603339E0,2.364073E3,2.594317E1,5.0882596E2,1.901604E3,1.1493301E0,1.1140624E0,1.1214117E1,2.352859E3,1.6608614E1,9.334557E0,3.9746567E2,1.1136028E2],"tree_param":{"num_deleted":"0","num_feature":"9","num_nodes":"21","size_leaf_vector":"1"}},{"base_weights":[-7.903315E-3,1.5294348E0,-6.389462E-1,1.6495975E0,3.9099216E-1,2.0288503E-1,-6.4781094E-1,8.357938E-2,1.2400261E0,1.546653E0,-3.4957767E-1,1.2839838E0,-4.588057E-1,-3.2651195E-1,-3.2478627E-2,1.0141275E-2,8.253353E-2,2.1995964E-2,8.150541E-2,2.401858E-2,-3.2158986E-2,-2.4050545E-2,7.976746E-2,8.545576E-3,-2.670247E-2,6.52074E-2,-2.7591625E-2],"categories":[],"categories_nodes":[],"categories_segments":[],"categories_sizes":[],"default_left":[0,0,0,0,0,0,0,0,0,0,0,0,0,0,0,0,0,0,0,0,0,0,0,0,0,0,0],"id":9,"left_children":[1,3,5,7,9,11,13,-1,15,17,19,21,23,25,-1,-1,-1,-1,-1,-1,-1,-1,-1,-1,-1,-1,-1],"loss_changes":[6.8991826E3,2.8247656E2,3.7757812E1,1.4785156E1,1.7077243E2,3.8718937E1,2.6120605E0,0E0,4.193622E1,6.4748077E0,3.0046597E1,1.2033688E1,1.6928635E0,1.1455441E1,0E0,0E0,0E0,0E0,0E0,0E0,0E0,0E0,0E0,0E0,0E0,0E0,0E0],"parents":[2147483647,0,0,1,1,2,2,3,3,4,4,5,5,6,6,8,8,9,9,10,10,11,11,12,12,13,13],"right_children":[2,4,6,8,10,12,14,-1,16,18,20,22,24,26,-1,-1,-1,-1,-1,-1,-1,-1,-1,-1,-1,-1,-1],"split_conditions":[7.74E2,1.94E1,7.98E2,1.83E1,5E0,4E0,8.09E2,8.357938E-2,2.6E-1,5.3E-1,1.98E1,1.4E-1,1.68E2,2E0,-3.2478627E-2,1.0141275E-2,8.253353E-2,2.1995964E-2,8.150541E-2,2.401858E-2,-3.2158986E-2,-2.4050545E-2,7.976746E-2,8.545576E-3,-2.670247E-2,6.52074E-2,-2.7591625E-2],"split_indices":[1,5,1,5,0,0,1,0,4,4,5,4,2,0,0,0,0,0,0,0,0,0,0,0,0,0,0],"split_type":[0,0,0,0,0,0,0,0,0,0,0,0,0,0,0,0,0,0,0,0,0,0,0,0,0,0,0],"sum_hessian":[7.1096265E3,2.068631E3,5.040995E3,1.8707269E3,1.9790428E2,5.2302124E1,4.9886934E3,1.7724807E3,9.8246216E1,7.6866104E1,1.21038185E2,1.9500656E1,3.2801468E1,2.821925E1,4.960474E3,2.8288757E1,6.995746E1,5.829541E0,7.103656E1,3.1462994E1,8.957519E1,2.8425624E0,1.6658092E1,3.3653429E0,2.9436127E1,2.8446143E0,2.5374634E1],"tree_param":{"num_deleted":"0","num_feature":"9","num_nodes":"27","size_leaf_vector":"1"}},{"base_weights":[1.2294931E-1,-6.6073036E-1,1.5191779E0,-3.328878E-2,1.5371281E-1,-3.2734852E-2,1.566999E0,-3.117292E-2,9.057185E-1,5.502725E-1,7.861014E-2,6.297667E-2,2.2135807E-2,7.167524E-2,-4.673658E-3],"categories":[],"categories_nodes":[],"categories_segments":[],"categories_sizes":[],"default_left":[0,0,0,0,0,0,0,0,0,0,0,0,0,0,0],"id":10,"left_children":[1,3,5,-1,7,-1,9,-1,11,13,-1,-1,-1,-1,-1],"loss_changes":[8.243884E3,1.993164E1,2.825952E2,0E0,1.8403238E1,0E0,1.3158691E1,0E0,2.0503836E0,8.682524E0,0E0,0E0,0E0,0E0,0E0],"parents":[2147483647,0,0,1,1,2,2,4,4,6,6,8,8,9,9],"right_children":[2,4,6,-1,8,-1,10,-1,12,14,-1,-1,-1,-1,-1],"split_conditions":[2.009E3,1.998E3,6.79E-1,-3.328878E-2,6.76E-1,-3.2734852E-2,6.82E-1,-3.117292E-2,5.52E2,2.043E3,7.861014E-2,6.297667E-2,2.2135807E-2,7.167524E-2,-4.673658E-3],"split_indices":[1,1,3,0,3,0,3,0,2,1,0,0,0,0,0],"split_type":[0,0,0,0,0,0,0,0,0,0,0,0,0,0,0],"sum_hessian":[7.532276E3,4.824751E3,2.7075247E3,4.7952285E3,2.9522635E1,5.800508E1,2.6495198E3,1.4602455E1,1.4920178E1,1.4034956E1,2.6354846E3,7.482147E0,7.438031E0,5.399674E0,8.635282E0],"tree_param":{"num_deleted":"0","num_feature":"9","num_nodes":"15","size_leaf_vector":"1"}},{"base_weights":[-2.3938058E-1,3.6265734E-1,-3.152998E-2,-6.254292E-1,1.8065346E0,-3.1527724E-2,-2.573252E-1,9.097731E-2,4.1575074E-1,-2.7725903E-2,-4.4049327E-3,3.605023E-2,-1.2628734E-2],"categories":[],"categories_nodes":[],"categories_segments":[],"categories_sizes":[],"default_left":[0,0,0,0,0,0,0,0,0,0,0,0,0],"id":11,"left_children":[1,3,-1,5,7,-1,9,-1,11,-1,-1,-1,-1],"loss_changes":[1.5294274E3,3.6504468E3,0E0,2.7042236E0,1.8054688E1,0E0,1.0854505E0,0E0,2.4121923E0,0E0,0E0,0E0,0E0],"parents":[2147483647,0,0,1,1,3,3,4,4,6,6,8,8],"right_children":[2,4,-1,6,8,-1,10,-1,12,-1,-1,-1,-1],"split_conditions":[5.15E0,3.01E-1,-3.152998E-2,2.98E-1,4.51E1,-3.1527724E-2,1.86E1,9.097731E-2,6.9E-2,-2.7725903E-2,-4.4049327E-3,3.605023E-2,-1.2628734E-2],"split_indices":[4,3,0,3,5,0,5,0,7,0,0,0,0],"split_type":[0,0,0,0,0,0,0,0,0,0,0,0,0],"sum_hessian":[6.4916216E3,2.556916E3,3.9347056E3,1.5183989E3,1.038517E3,1.496845E3,2.1553926E1,1.0285857E3,9.931312E0,6.994146E0,1.455978E1,6.7633615E0,3.1679497E0],"tree_param":{"num_deleted":"0","num_feature":"9","num_nodes":"13","size_leaf_vector":"1"}},{"base_weights":[8.7689966E-2,-3.2700762E-2,4.866803E-1,1.4686756E0,-5.223986E-1,1.4745935E0,8.672984E-1,-5.339801E-2,-3.2680567E-2,3.872715E-2,7.386132E-2,2.7127443E-2,6.454425E-2,-2.6196579E-2,7.353728E-2],"categories":[],"categories_nodes":[],"categories_segments":[],"categories_sizes":[],"default_left":[0,0,0,0,0,0,0,0,0,0,0,0,0,0,0],"id":12,"left_children":[1,-1,3,5,7,9,11,13,-1,-1,-1,-1,-1,-1,-1],"loss_changes":[2.1995786E3,0E0,4.7896104E3,7.4379883E0,1.4668927E2,3.324707E0,2.9171295E0,3.7535135E2,0E0,0E0,0E0,0E0,0E0,0E0,0E0],"parents":[2147483647,0,0,2,2,3,3,4,4,5,5,6,6,7,7],"right_children":[2,-1,4,6,8,10,12,14,-1,-1,-1,-1,-1,-1,-1],"split_conditions":[4.51E1,-3.2700762E-2,6.82E-1,6.79E-1,7.46E-1,5.15E0,8E0,9E0,-3.2680567E-2,3.872715E-2,7.386132E-2,2.7127443E-2,6.454425E-2,-2.6196579E-2,7.353728E-2],"split_indices":[5,0,3,3,3,4,0,0,0,0,0,0,0,0,0],"split_type":[0,0,0,0,0,0,0,0,0,0,0,0,0,0,0],"sum_hessian":[7.430611E3,2.5988413E3,4.8317695E3,2.4485159E3,2.3832534E3,2.4232183E3,2.529768E1,5.2131085E2,1.8619426E3,1.0185926E1,2.4130322E3,1.561049E1,9.68719E0,3.9883786E2,1.2247298E2],"tree_param":{"num_deleted":"0","num_feature":"9","num_nodes":"15","size_leaf_vector":"1"}},{"base_weights":[-1.2408199E-2,1.5419014E0,-3.214006E-2,7.7274464E-2,1.2442108E0,7.440868E-2,1.0274792E0,3.5361461E-3,5.840986E-2],"categories":[],"categories_nodes":[],"categories_segments":[],"categories_sizes":[],"default_left":[0,0,0,0,0,0,0,0,0],"id":13,"left_children":[1,3,-1,-1,5,-1,7,-1,-1],"loss_changes":[6.942873E3,2.6123047E-1,0E0,0E0,2.960968E-2,0E0,2.4539814E0,0E0,0E0],"parents":[2147483647,0,0,1,1,4,4,6,6],"right_children":[2,4,-1,-1,6,-1,8,-1,-1],"split_conditions":[3.01E-1,2.98E-1,-3.214006E-2,7.7274464E-2,1.86E1,7.440868E-2,2.3E-1,3.5361461E-3,5.840986E-2],"split_indices":[3,3,0,0,5,0,4,0,0],"split_type":[0,0,0,0,0,0,0,0,0],"sum_hessian":[7.083812E3,2.0436074E3,5.0402046E3,2.0151285E3,2.8478777E1,1.0637879E1,1.7840897E1,2.480219E0,1.5360679E1],"tree_param":{"num_deleted":"0","num_feature":"9","num_nodes":"9","size_leaf_vector":"1"}},{"base_weights":[1.23399615E-1,-6.5364224E-1,1.3760962E0,-6.573615E-1,7.112524E-2,1.0428444E0,7.292547E-2,-3.2889273E-2,-4.587407E-1,4.022653E-1,-4.9122545E-1,1.374251E0,-6.409267E-1,5.3687613E-3,-2.6079325E-2,2.4898683E-3,5.537492E-2,5.9384215E-3,-2.9313093E-2,5.9987884E-2,7.294426E-2,-3.2531362E-2,-1.3166881E-2],"categories":[],"categories_nodes":[],"categories_segments":[],"categories_sizes":[],"default_left":[0,0,0,0,0,0,0,0,0,0,0,0,0,0,0,0,0,0,0,0,0,0,0],"id":14,"left_children":[1,3,5,7,9,11,-1,-1,13,15,17,19,21,-1,-1,-1,-1,-1,-1,-1,-1,-1,-1],"loss_changes":[7.3276396E3,1.2571045E1,7.762744E1,8.703613E-2,4.782799E0,3.2167755E2,0E0,0E0,5.238657E-1,3.933707E0,6.247542E-1,5.3482056E0,1.774559E-1,0E0,0E0,0E0,0E0,0E0,0E0,0E0,0E0,0E0,0E0],"parents":[2147483647,0,0,1,1,2,2,3,3,4,4,5,5,8,8,9,9,10,10,11,11,12,12],"right_children":[2,4,6,8,10,12,-1,-1,14,16,18,20,22,-1,-1,-1,-1,-1,-1,-1,-1,-1,-1],"split_conditions":[6.82E-1,6.79E-1,7.46E-1,8.06E1,8E0,9E0,7.292547E-2,-3.2889273E-2,1.2E-2,7E0,1.7E-2,7.03E-1,8.46E1,5.3687613E-3,-2.6079325E-2,2.4898683E-3,5.537492E-2,5.9384215E-3,-2.9313093E-2,5.9987884E-2,7.294426E-2,-3.2531362E-2,-1.3166881E-2],"split_indices":[3,3,3,5,0,0,0,0,7,0,7,3,5,0,0,0,0,0,0,0,0,0,0],"split_type":[0,0,0,0,0,0,0,0,0,0,0,0,0,0,0,0,0,0,0,0,0,0,0],"sum_hessian":[7.525975E3,4.645112E3,2.880863E3,4.621489E3,2.3622887E1,5.738914E2,2.3069717E3,4.609339E3,1.2150273E1,1.5047086E1,8.575801E0,4.7966556E2,9.4225876E1,1.143255E0,1.1007018E1,1.0746641E1,4.3004446E0,1.1223365E0,7.4534645E0,1.616212E2,3.1804437E2,9.1160805E1,3.0650735E0],"tree_param":{"num_deleted":"0","num_feature":"9","num_nodes":"23","size_leaf_vector":"1"}},{"base_weights":[-2.3832782E-1,3.3351856E-1,-6.223269E-1,-6.1717486E-1,8.32552E-2,-2.1104595E-1,-3.1243829E-2,-3.1247718E-2,-1.2503132E-1,-4.629936E-1,1.932412E-1,-2.7819574E-2,4.945118E-3,3.6058247E-3,-2.5847584E-2,2.9156104E-2,-2.4311062E-2],"categories":[],"categories_nodes":[],"categories_segments":[],"categories_sizes":[],"default_left":[0,0,0,0,0,0,0,0,0,0,0,0,0,0,0,0,0],"id":15,"left_children":[1,3,5,7,-1,9,-1,-1,11,13,15,-1,-1,-1,-1,-1,-1],"loss_changes":[1.4015919E3,3.2474873E3,3.8721924E0,5.653137E0,0E0,2.6395478E0,0E0,0E0,2.4259791E0,4.9111462E-1,3.0166824E0,0E0,0E0,0E0,0E0,0E0,0E0],"parents":[2147483647,0,0,1,1,2,2,3,3,5,5,8,8,9,9,10,10],"right_children":[2,4,6,8,-1,10,-1,-1,12,14,16,-1,-1,-1,-1,-1,-1],"split_conditions":[4.53E-1,3.01E-1,4.75E1,2.98E-1,8.32552E-2,6.41E2,-3.1243829E-2,-3.1247718E-2,1.86E1,2.06E2,6.1E-2,-2.7819574E-2,4.945118E-3,3.6058247E-3,-2.5847584E-2,2.9156104E-2,-2.4311062E-2],"split_indices":[8,3,5,3,0,2,0,0,5,2,7,0,0,0,0,0,0],"split_type":[0,0,0,0,0,0,0,0,0,0,0,0,0,0,0,0,0],"sum_hessian":[6.380866E3,2.5634868E3,3.8173794E3,1.495968E3,1.0675188E3,2.403533E1,3.793344E3,1.4724231E3,2.3545004E1,1.4718008E1,9.317323E0,7.5386963E0,1.6006308E1,1.3173295E0,1.3400679E1,6.010334E0,3.3069882E0],"tree_param":{"num_deleted":"0","num_feature":"9","num_nodes":"17","size_leaf_vector":"1"}},{"base_weights":[8.6054295E-2,-6.459942E-1,4.6988836E-1,-3.2356944E-2,-3.181728E-1,1.3718472E0,-5.1715964E-1,1.7800583E-2,-2.8747378E-2,1.3769265E0,8.209207E-1,-6.278479E-2,-3.228269E-2,3.8005512E-2,6.896556E-2,-1.9905293E-2,4.501204E-2,-2.6060358E-2,6.867347E-2],"categories":[],"categories_nodes":[],"categories_segments":[],"categories_sizes":[],"default_left":[0,0,0,0,0,0,0,0,0,0,0,0,0,0,0,0,0,0,0],"id":16,"left_children":[1,3,5,-1,7,9,11,-1,-1,13,15,17,-1,-1,-1,-1,-1,-1,-1],"loss_changes":[2.0711167E3,7.4560547E-1,4.305538E3,0E0,2.072489E0,5.9404297E0,1.3479938E2,0E0,0E0,2.6323242E0,2.829956E0,3.366654E2,0E0,0E0,0E0,0E0,0E0,0E0,0E0],"parents":[2147483647,0,0,1,1,2,2,4,4,5,5,6,6,9,9,10,10,11,11],"right_children":[2,4,6,-1,8,10,12,-1,-1,14,16,18,-1,-1,-1,-1,-1,-1,-1],"split_conditions":[4.53E-1,4.72E0,6.82E-1,-3.2356944E-2,4.15E-1,6.79E-1,7.46E-1,1.7800583E-2,-2.8747378E-2,5.15E0,8.2E-1,9E0,-3.228269E-2,3.8005512E-2,6.896556E-2,-1.9905293E-2,4.501204E-2,-2.6060358E-2,6.867347E-2],"split_indices":[8,4,3,0,3,3,3,0,0,4,6,0,0,0,0,0,0,0,0],"split_type":[0,0,0,0,0,0,0,0,0,0,0,0,0,0,0,0,0,0,0],"sum_hessian":[7.3688315E3,2.5344482E3,4.8343833E3,2.5246587E3,9.789456E0,2.525869E3,2.3085144E3,2.5935056E0,7.1959505E0,2.501308E3,2.4560883E1,5.0924292E2,1.7992714E3,1.0864612E1,2.4904436E3,1.2549694E0,2.3305914E1,3.8651312E2,1.2272981E2],"tree_param":{"num_deleted":"0","num_feature":"9","num_nodes":"19","size_leaf_vector":"1"}},{"base_weights":[-1.680843E-2,1.433815E0,-3.1810783E-2,7.172567E-2,6.1411375E-1,1.9124935E-3,4.597055E-2],"categories":[],"categories_nodes":[],"categories_segments":[],"categories_sizes":[],"default_left":[0,0,0,0,0,0,0],"id":17,"left_children":[1,3,-1,-1,5,-1,-1],"loss_changes":[6.31803E3,3.2373047E-1,0E0,0E0,5.871047E-1,0E0,0E0],"parents":[2147483647,0,0,1,1,4,4],"right_children":[2,4,-1,-1,6,-1,-1],"split_conditions":[3.01E-1,2.42E1,-3.1810783E-2,7.172567E-2,9.4E-1,1.9124935E-3,4.597055E-2],"split_indices":[3,5,0,0,6,0,0],"split_type":[0,0,0,0,0,0,0],"sum_hessian":[7.02953E3,2.1030254E3,4.9265044E3,2.1004858E3,2.5394647E0,1.2697324E0,1.2697324E0],"tree_param":{"num_deleted":"0","num_feature":"9","num_nodes":"7","size_leaf_vector":"1"}},{"base_weights":[1.21446684E-1,-6.3339484E-1,1.2860785E0,-6.470863E-1,-1.8419491E-1,9.481166E-1,6.788517E-2,-3.2491162E-2,-5.557099E-1,7.154384E-1,-5.4731053E-1,1.2677906E0,-5.3295463E-1,4.9914014E-2,-3.1922873E-2,4.4827268E-2,-2.676866E-2,-3.210367E-2,-9.412162E-3,5.0959468E-2,6.601548E-2,1.9428841E-4,-3.093711E-2],"categories":[],"categories_nodes":[],"categories_segments":[],"categories_sizes":[],"default_left":[0,0,0,0,0,0,0,0,0,0,0,0,0,0,0,0,0,0,0,0,0,0,0],"id":18,"left_children":[1,3,5,7,9,11,-1,-1,13,15,17,19,21,-1,-1,-1,-1,-1,-1,-1,-1,-1,-1],"loss_changes":[6.5987236E3,2.7891357E1,7.016504E1,7.441406E-1,4.485445E1,2.4663611E2,0E0,0E0,1.8051426E1,9.444466E0,3.197918E0,4.2368164E0,4.2820663E0,0E0,0E0,0E0,0E0,0E0,0E0,0E0,0E0,0E0,0E0],"parents":[2147483647,0,0,1,1,2,2,3,3,4,4,5,5,8,8,9,9,10,10,11,11,12,12],"right_children":[2,4,6,8,10,12,-1,-1,14,16,18,20,22,-1,-1,-1,-1,-1,-1,-1,-1,-1,-1],"split_conditions":[8.08E1,7.98E1,8.42E1,7.88E1,9.87E0,9E0,6.788517E-2,-3.2491162E-2,9.59E0,9E0,8.12E-1,8.14E1,9.71E0,4.9914014E-2,-3.1922873E-2,4.4827268E-2,-2.676866E-2,-3.210367E-2,-9.412162E-3,5.0959468E-2,6.601548E-2,1.9428841E-4,-3.093711E-2],"split_indices":[5,5,5,5,4,0,0,0,4,0,8,5,4,0,0,0,0,0,0,0,0,0,0],"split_type":[0,0,0,0,0,0,0,0,0,0,0,0,0,0,0,0,0,0,0,0,0,0,0],"sum_hessian":[7.504194E3,4.5534126E3,2.9507812E3,4.4183037E3,1.351091E2,5.184958E2,2.4322854E3,4.2838794E3,1.3442438E2,3.857291E1,9.6536194E1,4.265692E2,9.1926575E1,6.2366443E0,1.2818773E2,3.3941673E1,4.631239E0,7.575519E1,2.0781012E1,7.795808E1,3.4861115E2,1.2797458E1,7.912911E1],"tree_param":{"num_deleted":"0","num_feature":"9","num_nodes":"23","size_leaf_vector":"1"}},{"base_weights":[-2.3604488E-1,3.1395176E-1,-3.0968223E-2,-6.1166126E-1,1.5281279E0,-3.0975208E-2,-1.2163976E-1,7.6950386E-2,2.5126737E-1,-2.7526869E-2,4.7950726E-3,-2.379477E-2,2.8480038E-2],"categories":[],"categories_nodes":[],"categories_segments":[],"categories_sizes":[],"default_left":[0,0,0,0,0,0,0,0,0,0,0,0,0],"id":19,"left_children":[1,3,-1,5,7,-1,9,-1,11,-1,-1,-1,-1],"loss_changes":[1.330367E3,2.9139414E3,0E0,5.579773E0,1.5192871E1,0E0,2.3316815E0,0E0,2.74104E0,0E0,0E0,0E0,0E0],"parents":[2147483647,0,0,1,1,3,3,4,4,6,6,8,8],"right_children":[2,4,-1,6,8,-1,10,-1,12,-1,-1,-1,-1],"split_conditions":[5.15E0,3.01E-1,-3.0968223E-2,2.98E-1,4.51E1,-3.0975208E-2,1.86E1,7.6950386E-2,4.18E-1,-2.7526869E-2,4.7950726E-3,-2.379477E-2,2.8480038E-2],"split_indices":[4,3,0,3,5,0,5,0,3,0,0,0,0],"split_type":[0,0,0,0,0,0,0,0,0,0,0,0,0],"sum_hessian":[6.308384E3,2.590972E3,3.7174119E3,1.4704714E3,1.1205005E3,1.4470469E3,2.342458E1,1.1108302E3,9.670328E0,7.367774E0,1.6056805E1,2.7937226E0,6.8766055E0],"tree_param":{"num_deleted":"0","num_feature":"9","num_nodes":"13","size_leaf_vector":"1"}},{"base_weights":[8.9168355E-2,-6.390224E-1,4.5824948E-1,-3.201033E-2,-2.3462707E-1,1.2719924E0,-5.9729886E-1,4.8413837E-1,-2.7388796E-2,1.2962992E0,5.978619E-1,1.1687558E0,-3.197139E-2,5.1571406E-2,-1.6462915E-2,3.0845378E-2,6.4967535E-2,6.313547E-2,-2.1859115E-2,6.0621053E-2,6.889107E-3],"categories":[],"categories_nodes":[],"categories_segments":[],"categories_sizes":[],"default_left":[0,0,0,0,0,0,0,0,0,0,0,0,0,0,0,0,0,0,0,0,0],"id":20,"left_children":[1,3,5,-1,7,9,11,13,-1,15,17,19,-1,-1,-1,-1,-1,-1,-1,-1,-1],"loss_changes":[1.9725997E3,1.0321045E0,4.1844126E3,0E0,2.2430305E0,4.429834E1,1.5855371E2,1.7629898E0,0E0,4.7001953E0,6.770474E1,2.0735245E0,0E0,0E0,0E0,0E0,0E0,0E0,0E0,0E0,0E0],"parents":[2147483647,0,0,1,1,2,2,4,4,5,5,6,6,7,7,9,9,10,10,11,11],"right_children":[2,4,6,-1,8,10,12,14,-1,16,18,20,-1,-1,-1,-1,-1,-1,-1,-1,-1],"split_conditions":[4.51E1,4.72E0,2.032E3,-3.201033E-2,3.3E-2,1.998E3,6.82E-1,4.15E-1,-2.7388796E-2,5.15E0,6.79E-1,2.1E3,-3.197139E-2,5.1571406E-2,-1.6462915E-2,3.0845378E-2,6.4967535E-2,6.313547E-2,-2.1859115E-2,6.0621053E-2,6.889107E-3],"split_indices":[5,4,1,0,7,1,3,3,0,4,3,1,0,0,0,0,0,0,0,0,0],"split_type":[0,0,0,0,0,0,0,0,0,0,0,0,0,0,0,0,0,0,0,0,0],"sum_hessian":[7.3375034E3,2.467815E3,4.869688E3,2.4600278E3,7.7872143E0,2.749692E3,2.1199963E3,2.1974382E0,5.589776E0,2.653107E3,9.658494E1,4.8770817E1,2.0712256E3,1.1533571E0,1.0440811E0,1.2771161E1,2.6403357E3,5.8675514E1,3.790942E1,4.6620293E1,2.1505246E0],"tree_param":{"num_deleted":"0","num_feature":"9","num_nodes":"21","size_leaf_vector":"1"}},{"base_weights":[-1.4744594E-2,1.3414403E0,-3.149524E-2,6.710384E-2,5.871708E-1,1.3778372E-3,4.4407878E-2],"categories":[],"categories_nodes":[],"categories_segments":[],"categories_sizes":[],"default_left":[0,0,0,0,0,0,0],"id":21,"left_children":[1,3,-1,-1,5,-1,-1],"loss_changes":[5.7442607E3,2.4291992E-1,0E0,0E0,5.800401E-1,0E0,0E0],"parents":[2147483647,0,0,1,1,4,4],"right_children":[2,4,-1,-1,6,-1,-1],"split_conditions":[3.01E-1,2.42E1,-3.149524E-2,6.710384E-2,9.7E-1,1.3778372E-3,4.4407878E-2],"split_indices":[3,5,0,0,6,0,0],"split_type":[0,0,0,0,0,0,0],"sum_hessian":[6.8833525E3,2.1475884E3,4.735764E3,2.1449995E3,2.5889788E0,1.287231E0,1.3017479E0],"tree_param":{"num_deleted":"0","num_feature":"9","num_nodes":"7","size_leaf_vector":"1"}},{"base_weights":[1.119645E-1,-6.380929E-1,1.2432332E0,-3.2176174E-2,1.9339938E-1,1.17400944E-1,1.2804731E0,-5.360492E-1,8.4879875E-1,6.3304436E-1,-5.0172144E-1,8.482294E-1,6.417867E-2,-2.9873937E-2,5.21391E-3,4.8260573E-2,4.518935E-3,4.36777E-3,5.8842104E-2,-3.1165406E-2,-7.4325274E-3,6.1037816E-2,1.4356415E-2],"categories":[],"categories_nodes":[],"categories_segments":[],"categories_sizes":[],"default_left":[0,0,0,0,0,0,0,0,0,0,0,0,0,0,0,0,0,0,0,0,0,0,0],"id":22,"left_children":[1,3,5,-1,7,9,11,13,15,17,19,21,-1,-1,-1,-1,-1,-1,-1,-1,-1,-1,-1],"loss_changes":[6.295559E3,2.0270508E1,1.23867676E2,0E0,1.4662943E1,3.0905334E1,2.7480469E0,6.3965416E-1,1.3290195E0,1.5540621E1,1.8003063E0,4.5277767E0,0E0,0E0,0E0,0E0,0E0,0E0,0E0,0E0,0E0,0E0,0E0],"parents":[2147483647,0,0,1,1,2,2,4,4,5,5,6,6,7,7,8,8,9,9,10,10,11,11],"right_children":[2,4,6,-1,8,10,12,14,16,18,20,22,-1,-1,-1,-1,-1,-1,-1,-1,-1,-1,-1],"split_conditions":[2.009E3,1.998E3,8.08E1,-3.2176174E-2,8.04E1,9.87E0,8.16E-1,9.72E2,7.6E-2,8.05E-1,8.12E-1,1E1,6.417867E-2,-2.9873937E-2,5.21391E-3,4.8260573E-2,4.518935E-3,4.36777E-3,5.8842104E-2,-3.1165406E-2,-7.4325274E-3,6.1037816E-2,1.4356415E-2],"split_indices":[1,1,5,0,5,4,8,2,7,8,8,4,0,0,0,0,0,0,0,0,0,0,0],"split_type":[0,0,0,0,0,0,0,0,0,0,0,0,0,0,0,0,0,0,0,0,0,0,0],"sum_hessian":[7.4175557E3,4.4605464E3,2.9570095E3,4.4318276E3,2.8718748E1,9.4812294E1,2.8621973E3,1.3677747E1,1.5041001E1,5.171683E1,4.3095463E1,2.2338284E1,2.839859E3,1.25415E1,1.1362468E0,1.280314E1,2.2378619E0,2.639284E1,2.532399E1,3.1486942E1,1.1608519E1,1.2718535E1,9.619748E0],"tree_param":{"num_deleted":"0","num_feature":"9","num_nodes":"23","size_leaf_vector":"1"}},{"base_weights":[-2.2757195E-1,3.1880403E-1,-3.0702684E-2,-6.061073E-1,1.4218739E0,-3.0712117E-2,-8.511477E-2,7.157364E-2,2.907078E-1,-2.711082E-2,7.3002167E-3,-2.1751508E-2,2.5171626E-2],"categories":[],"categories_nodes":[],"categories_segments":[],"categories_sizes":[],"default_left":[0,0,0,0,0,0,0,0,0,0,0,0,0],"id":23,"left_children":[1,3,-1,5,7,-1,9,-1,11,-1,-1,-1,-1],"loss_changes":[1.3230164E3,2.649406E3,0E0,5.9353027E0,1.2442383E1,0E0,2.4963984E0,0E0,1.9511377E0,0E0,0E0,0E0,0E0],"parents":[2147483647,0,0,1,1,3,3,4,4,6,6,8,8],"right_children":[2,4,-1,6,8,-1,10,-1,12,-1,-1,-1,-1],"split_conditions":[5.15E0,3.01E-1,-3.0702684E-2,2.98E-1,4.51E1,-3.0712117E-2,1.86E1,7.157364E-2,4.18E-1,-2.711082E-2,7.3002167E-3,-2.1751508E-2,2.5171626E-2],"split_indices":[4,3,0,3,5,0,5,0,3,0,0,0,0],"split_type":[0,0,0,0,0,0,0,0,0,0,0,0,0],"sum_hessian":[6.2634136E3,2.5949966E3,3.668417E3,1.4117289E3,1.1832677E3,1.3898481E3,2.1880726E1,1.173048E3,1.0219732E1,6.89598E0,1.4984747E1,2.0796607E0,8.140071E0],"tree_param":{"num_deleted":"0","num_feature":"9","num_nodes":"13","size_leaf_vector":"1"}},{"base_weights":[8.554938E-2,-6.3278925E-1,4.4386002E-1,-3.1678878E-2,-3.7098783E-1,1.201787E0,-5.8820516E-1,2.0352257E-2,-2.8101021E-2,1.2243484E0,5.4091316E-1,6.369917E-1,-6.2897164E-1,3.840744E-2,6.1309975E-2,5.096805E-2,-1.5083432E-2,7.73471E-3,5.7137407E-2,-1.1291365E-2,-3.16522E-2],"categories":[],"categories_nodes":[],"categories_segments":[],"categories_sizes":[],"default_left":[0,0,0,0,0,0,0,0,0,0,0,0,0,0,0,0,0,0,0,0,0],"id":24,"left_children":[1,3,5,-1,7,9,11,-1,-1,13,15,17,19,-1,-1,-1,-1,-1,-1,-1,-1],"loss_changes":[1.8686744E3,2.6361084E-1,3.7896804E3,0E0,1.665449E0,4.0984375E1,1.0287494E2,0E0,0E0,1.3383789E0,3.8201168E1,1.6059923E1,3.1177368E0,0E0,0E0,0E0,0E0,0E0,0E0,0E0,0E0],"parents":[2147483647,0,0,1,1,2,2,4,4,5,5,6,6,9,9,10,10,11,11,12,12],"right_children":[2,4,6,-1,8,10,12,-1,-1,14,16,18,20,-1,-1,-1,-1,-1,-1,-1,-1],"split_conditions":[4.51E1,4.72E0,2.032E3,-3.1678878E-2,1.79E2,1.998E3,8.08E1,2.0352257E-2,-2.8101021E-2,5.15E0,8.06E1,9.87E0,8.1E1,3.840744E-2,6.1309975E-2,5.096805E-2,-1.5083432E-2,7.73471E-3,5.7137407E-2,-1.1291365E-2,-3.16522E-2],"split_indices":[5,4,1,0,2,1,5,0,0,4,5,4,5,0,0,0,0,0,0,0,0],"split_type":[0,0,0,0,0,0,0,0,0,0,0,0,0,0,0,0,0,0,0,0,0],"sum_hessian":[7.258044E3,2.4152341E3,4.84281E3,2.4065679E3,8.6661825E0,2.7921497E3,2.0506604E3,1.4854629E0,7.18072E0,2.6991514E3,9.2998276E1,6.556429E1,1.9850961E3,1.2589375E1,2.686562E3,5.9182533E1,3.3815742E1,3.4228916E1,3.1335379E1,2.0416487E1,1.9646796E3],"tree_param":{"num_deleted":"0","num_feature":"9","num_nodes":"21","size_leaf_vector":"1"}},{"base_weights":[-1.1100991E-2,1.2619112E0,-3.1192977E-2,6.325674E-2,9.9290776E-1,6.1591636E-2,7.589488E-1,-6.6021304E-3,4.324175E-2],"categories":[],"categories_nodes":[],"categories_segments":[],"categories_sizes":[],"default_left":[0,0,0,0,0,0,0,0,0],"id":25,"left_children":[1,3,-1,-1,5,-1,7,-1,-1],"loss_changes":[5.316568E3,6.6430664E-1,0E0,0E0,7.9086304E-1,0E0,1.8315887E0,0E0,0E0],"parents":[2147483647,0,0,1,1,4,4,6,6],"right_children":[2,4,-1,-1,6,-1,8,-1,-1],"split_conditions":[3.01E-1,2.98E-1,-3.1192977E-2,6.325674E-2,1.86E1,6.1591636E-2,2.3E-1,-6.6021304E-3,4.324175E-2],"split_indices":[3,3,0,0,5,0,4,0,0],"split_type":[0,0,0,0,0,0,0,0,0],"sum_hessian":[6.813675E3,2.2136775E3,4.5999976E3,2.1838044E3,2.9873108E1,1.266951E1,1.7203598E1,1.8010912E0,1.5402507E1],"tree_param":{"num_deleted":"0","num_feature":"9","num_nodes":"9","size_leaf_vector":"1"}},{"base_weights":[1.0923728E-1,-3.1830944E-2,1.1675528E0,-6.014932E-1,1.2077774E0,1.078074E-3,-3.0762617E-2,4.2239016E-1,6.0598172E-2,5.5384852E-2,-1.0701684E-2],"categories":[],"categories_nodes":[],"categories_segments":[],"categories_sizes":[],"default_left":[0,0,0,0,0,0,0,0,0,0,0],"id":26,"left_children":[1,-1,3,5,7,-1,-1,9,-1,-1,-1],"loss_changes":[5.8064854E3,0E0,2.171211E2,5.985775E-1,9.26416E0,0E0,0E0,7.7825975E0,0E0,0E0,0E0],"parents":[2147483647,0,0,2,2,3,3,4,4,7,7],"right_children":[2,-1,4,6,8,-1,-1,10,-1,-1,-1],"split_conditions":[1.998E3,-3.1830944E-2,6.79E-1,1.1E-2,6.82E-1,1.078074E-3,-3.0762617E-2,2.043E3,6.0598172E-2,5.5384852E-2,-1.0701684E-2],"split_indices":[1,0,3,7,3,0,0,1,0,0,0],"split_type":[0,0,0,0,0,0,0,0,0,0,0],"sum_hessian":[7.3540815E3,4.314091E3,3.0399907E3,6.727634E1,2.9727144E3,1.4413359E0,6.5835E1,1.6300446E1,2.9564138E3,7.492236E0,8.808208E0],"tree_param":{"num_deleted":"0","num_feature":"9","num_nodes":"11","size_leaf_vector":"1"}},{"base_weights":[-2.1767464E-1,3.0815643E-1,-3.0446846E-2,-5.8902186E-1,1.161356E0,-5.997337E-1,5.8771636E-2,6.465622E-1,1.324312E0,-3.034359E-2,-1.1814768E-2,4.3306377E-2,-2.99245E-2,6.665562E-2,1.9931765E-2],"categories":[],"categories_nodes":[],"categories_segments":[],"categories_sizes":[],"default_left":[0,0,0,0,0,0,0,0,0,0,0,0,0,0,0],"id":27,"left_children":[1,3,-1,5,7,9,-1,11,13,-1,-1,-1,-1,-1,-1],"loss_changes":[1.2571709E3,1.9964506E3,0E0,2.4737427E1,1.1127844E2,3.137146E0,0E0,8.8912094E1,7.7319336E0,0E0,0E0,0E0,0E0,0E0,0E0],"parents":[2147483647,0,0,1,1,3,3,4,4,5,5,7,7,8,8],"right_children":[2,4,-1,6,8,10,-1,12,14,-1,-1,-1,-1,-1,-1],"split_conditions":[5.15E0,1.86E1,-3.0446846E-2,7.86E2,7.98E2,1.83E1,5.8771636E-2,7.7E-1,4.51E1,-3.034359E-2,-1.1814768E-2,4.3306377E-2,-2.99245E-2,6.665562E-2,1.9931765E-2],"split_indices":[4,5,0,1,1,5,0,4,5,0,0,0,0,0,0],"split_type":[0,0,0,0,0,0,0,0,0,0,0,0,0,0,0],"sum_hessian":[6.1086353E3,2.6062358E3,3.5023994E3,1.2705276E3,1.3357083E3,1.2635171E3,7.010578E0,3.22348E2,1.0133603E3,1.238522E3,2.4995035E1,2.7428253E2,4.806545E1,1.0033811E3,9.979207E0],"tree_param":{"num_deleted":"0","num_feature":"9","num_nodes":"15","size_leaf_vector":"1"}},{"base_weights":[7.7067494E-2,-6.2604964E-1,4.200117E-1,-3.136381E-2,-2.8444E-1,1.1354141E0,-5.822558E-1,2.9116383E-2,-4.5666054E-1,1.1591789E0,4.5674554E-1,6.050092E-1,-6.2096345E-1,6.6367495E-3,-2.7706524E-2,2.6410047E-2,5.8097955E-2,4.843742E-2,-1.9647306E-2,6.059829E-3,5.4611314E-2,-2.629712E-3,-3.1329546E-2],"categories":[],"categories_nodes":[],"categories_segments":[],"categories_sizes":[],"default_left":[0,0,0,0,0,0,0,0,0,0,0,0,0,0,0,0,0,0,0,0,0,0,0],"id":28,"left_children":[1,3,5,-1,7,9,11,-1,13,15,17,19,21,-1,-1,-1,-1,-1,-1,-1,-1,-1,-1],"loss_changes":[1.7225308E3,8.029175E-1,3.443433E3,0E0,1.7898929E0,4.4662354E1,9.230902E1,0E0,5.9503114E-1,4.1345215E0,4.233994E1,1.4875286E1,6.164917E0,0E0,0E0,0E0,0E0,0E0,0E0,0E0,0E0,0E0,0E0],"parents":[2147483647,0,0,1,1,2,2,4,4,5,5,6,6,8,8,9,9,10,10,11,11,12,12],"right_children":[2,4,6,-1,8,10,12,-1,14,16,18,20,22,-1,-1,-1,-1,-1,-1,-1,-1,-1,-1],"split_conditions":[4.51E1,4.72E0,2.032E3,-3.136381E-2,1.8E-2,1.998E3,8.08E1,2.9116383E-2,1.79E2,5.15E0,8.06E1,9.87E0,8.16E-1,6.6367495E-3,-2.7706524E-2,2.6410047E-2,5.8097955E-2,4.843742E-2,-1.9647306E-2,6.059829E-3,5.4611314E-2,-2.629712E-3,-3.1329546E-2],"split_indices":[5,4,1,0,7,1,5,0,2,4,5,4,8,0,0,0,0,0,0,0,0,0,0],"split_type":[0,0,0,0,0,0,0,0,0,0,0,0,0,0,0,0,0,0,0,0,0,0,0],"sum_hessian":[7.1414883E3,2.3410186E3,4.8004697E3,2.3318096E3,9.209111E0,2.8010166E3,1.9994534E3,1.1317651E0,8.077346E0,2.7055684E3,9.544821E1,6.2666855E1,1.9367865E3,1.0948776E0,6.9824686E0,1.2706957E1,2.6928613E3,5.9471848E1,3.597636E1,3.2069847E1,3.0597008E1,1.9089615E1,1.9176969E3],"tree_param":{"num_deleted":"0","num_feature":"9","num_nodes":"23","size_leaf_vector":"1"}},{"base_weights":[-1.4755347E-2,1.1938919E0,-3.0905528E-2,5.9844326E-2,9.6729E-1,5.8221992E-2,8.109407E-1,7.6684775E-3,4.545702E-2],"categories":[],"categories_nodes":[],"categories_segments":[],"categories_sizes":[],"default_left":[0,0,0,0,0,0,0,0,0],"id":29,"left_children":[1,3,-1,-1,5,-1,7,-1,-1],"loss_changes":[4.9149478E3,3.6547852E-1,0E0,0E0,1.186676E-1,0E0,1.3151665E0,0E0,0E0],"parents":[2147483647,0,0,1,1,4,4,6,6],"right_children":[2,4,-1,-1,6,-1,8,-1,-1],"split_conditions":[3.01E-1,2.98E-1,-3.0905528E-2,5.9844326E-2,1.86E1,5.8221992E-2,2.3E-1,7.6684775E-3,4.545702E-2],"split_indices":[3,3,0,0,5,0,4,0,0],"split_type":[0,0,0,0,0,0,0,0,0],"sum_hessian":[6.737777E3,2.2431992E3,4.494578E3,2.2097146E3,3.3484478E1,1.1958118E1,2.152636E1,3.1298537E0,1.8396507E1],"tree_param":{"num_deleted":"0","num_feature":"9","num_nodes":"9","size_leaf_vector":"1"}},{"base_weights":[1.0729023E-1,-6.2470305E-1,1.1154742E0,-3.1502753E-2,1.8381307E-1,-4.501786E-1,5.7519507E-2,-2.9312078E-2,8.5455805E-1,-3.1114701E-2,1.6512427E-1,4.8540547E-2,4.871832E-3,4.0970262E-2,-8.87579E-3],"categories":[],"categories_nodes":[],"categories_segments":[],"categories_sizes":[],"default_left":[0,0,0,0,0,0,0,0,0,0,0,0,0,0,0],"id":30,"left_children":[1,3,5,-1,7,9,-1,-1,11,-1,13,-1,-1,-1,-1],"loss_changes":[5.376266E3,1.8379883E1,1.6803564E2,0E0,1.5237026E1,7.2583227E0,0E0,0E0,1.2833338E0,0E0,3.6335735E0,0E0,0E0,0E0,0E0],"parents":[2147483647,0,0,1,1,2,2,4,4,5,5,8,8,10,10],"right_children":[2,4,6,-1,8,10,-1,-1,12,-1,14,-1,-1,-1,-1],"split_conditions":[2.009E3,1.998E3,6.82E-1,-3.1502753E-2,6.76E-1,6.79E-1,5.7519507E-2,-2.9312078E-2,7.7E-2,-3.1114701E-2,2.043E3,4.8540547E-2,4.871832E-3,4.0970262E-2,-8.87579E-3],"split_indices":[1,1,3,0,3,3,0,0,7,0,1,0,0,0,0],"split_type":[0,0,0,0,0,0,0,0,0,0,0,0,0,0,0],"sum_hessian":[7.283128E3,4.219752E3,3.063376E3,4.192222E3,2.7530022E1,6.6567116E1,2.9968088E3,1.2874884E1,1.4655137E1,5.200787E1,1.4559245E1,1.2459754E1,2.195383E0,4.52575E0,1.0033495E1],"tree_param":{"num_deleted":"0","num_feature":"9","num_nodes":"15","size_leaf_vector":"1"}},{"base_weights":[-2.2127844E-1,2.909997E-1,-3.0200968E-2,-5.822874E-1,1.0944283E0,-6.011715E-1,1.5503639E-1,5.2263904E-1,1.1708294E0,-3.0209532E-2,-1.9696591E-2,5.797679E-2,-2.8834641E-2,6.1238796E-2,-2.803196E-2,4.6081137E-2,6.245141E-2],"categories":[],"categories_nodes":[],"categories_segments":[],"categories_sizes":[],"default_left":[0,0,0,0,0,0,0,0,0,0,0,0,0,0,0,0,0],"id":31,"left_children":[1,3,-1,5,7,9,11,13,15,-1,-1,-1,-1,-1,-1,-1,-1],"loss_changes":[1.176774E3,1.8016163E3,0E0,1.7227905E1,5.780652E1,5.1293945E-1,2.384102E1,1.2194803E2,2.1821533E1,0E0,0E0,0E0,0E0,0E0,0E0,0E0,0E0],"parents":[2147483647,0,0,1,1,3,3,4,4,5,5,6,6,7,7,8,8],"right_children":[2,4,-1,6,8,10,12,14,16,-1,-1,-1,-1,-1,-1,-1,-1],"split_conditions":[5.15E0,1.86E1,-3.0200968E-2,1.83E1,1.98E1,1.81E1,1E-1,2.7E-1,3E0,-3.0209532E-2,-1.9696591E-2,5.797679E-2,-2.8834641E-2,6.1238796E-2,-2.803196E-2,4.6081137E-2,6.245141E-2],"split_indices":[4,5,0,5,5,5,4,4,0,0,0,0,0,0,0,0,0],"split_type":[0,0,0,0,0,0,0,0,0,0,0,0,0,0,0,0,0],"sum_hessian":[5.9999155E3,2.5658728E3,3.434043E3,1.2296161E3,1.3362566E3,1.1990901E3,3.0526049E1,1.5842654E2,1.1778301E3,1.1799841E3,1.9105906E1,1.2618728E1,1.7907322E1,9.604407E1,6.238248E1,2.843712E2,8.9345886E2],"tree_param":{"num_deleted":"0","num_feature":"9","num_nodes":"17","size_leaf_vector":"1"}},{"base_weights":[8.281321E-2,-3.1020468E-2,4.1150588E-1,1.0754766E0,-5.87123E-1,1.1031761E0,4.634195E-1,1.0585804E0,-3.103157E-2,1.52954105E-2,5.5187155E-2,5.4487932E-2,-2.2288967E-2,-1.9834838E-3,5.4996956E-2],"categories":[],"categories_nodes":[],"categories_segments":[],"categories_sizes":[],"default_left":[0,0,0,0,0,0,0,0,0,0,0,0,0,0,0],"id":32,"left_children":[1,-1,3,5,7,9,11,13,-1,-1,-1,-1,-1,-1,-1],"loss_changes":[1.6438851E3,0E0,3.2141213E3,4.8846436E1,1.0742377E2,9.2089844E-1,7.325015E1,1.8153E0,0E0,0E0,0E0,0E0,0E0,0E0,0E0],"parents":[2147483647,0,0,2,2,3,3,4,4,5,5,6,6,7,7],"right_children":[2,-1,4,6,8,10,12,14,-1,-1,-1,-1,-1,-1,-1],"split_conditions":[4.51E1,-3.1020468E-2,2.043E3,1.998E3,6.82E-1,9.61E2,6.79E-1,1.1E-2,-3.103157E-2,1.52954105E-2,5.5187155E-2,5.4487932E-2,-2.2288967E-2,-1.9834838E-3,5.4996956E-2],"split_indices":[5,0,1,1,3,1,3,7,0,0,0,0,0,0,0],"split_type":[0,0,0,0,0,0,0,0,0,0,0,0,0,0,0],"sum_hessian":[7.1098447E3,2.2643933E3,4.845451E3,2.91034E3,1.935111E3,2.783564E3,1.267763E2,3.8004436E1,1.8971066E3,2.3623466E0,2.7812017E3,7.494722E1,5.182908E1,1.3807399E0,3.66237E1],"tree_param":{"num_deleted":"0","num_feature":"9","num_nodes":"15","size_leaf_vector":"1"}},{"base_weights":[-1.2579338E-2,1.1337476E0,-3.0630305E-2,5.684316E-2,8.96348E-1,1.0608392E0,6.629822E-1,5.8346707E-2,3.2653227E-2,4.8824344E-2,2.3775058E-2],"categories":[],"categories_nodes":[],"categories_segments":[],"categories_sizes":[],"default_left":[0,0,0,0,0,0,0,0,0,0,0],"id":33,"left_children":[1,3,-1,-1,5,7,9,-1,-1,-1,-1],"loss_changes":[4.5872217E3,6.755371E-1,0E0,0E0,6.175747E-1,3.9024353E-2,5.285897E-1,0E0,0E0,0E0,0E0],"parents":[2147483647,0,0,1,1,4,4,5,5,6,6],"right_children":[2,4,-1,-1,6,8,10,-1,-1,-1,-1],"split_conditions":[3.01E-1,2.98E-1,-3.0630305E-2,5.684316E-2,5.07E2,5.7E-1,1.8E-1,5.8346707E-2,3.2653227E-2,4.8824344E-2,2.3775058E-2],"split_indices":[3,3,0,0,2,4,8,0,0,0,0],"split_type":[0,0,0,0,0,0,0,0,0,0,0],"sum_hessian":[6.667142E3,2.2904465E3,4.3766953E3,2.2570364E3,3.3410275E1,1.751721E1,1.5893066E1,1.2423218E1,5.0939918E0,4.372666E0,1.15204E1],"tree_param":{"num_deleted":"0","num_feature":"9","num_nodes":"11","size_leaf_vector":"1"}},{"base_weights":[1.0658547E-1,-6.1998254E-1,1.0377176E0,-3.1174112E-2,1.8942164E-2,8.03612E-1,5.4638833E-2,2.951646E-1,-2.7990738E-2,1.041537E0,-3.0462522E-2,-2.5794044E-2,2.523157E-2,4.6346582E-2,5.4912914E-2],"categories":[],"categories_nodes":[],"categories_segments":[],"categories_sizes":[],"default_left":[0,0,0,0,0,0,0,0,0,0,0,0,0,0,0],"id":34,"left_children":[1,3,5,-1,7,9,-1,11,-1,13,-1,-1,-1,-1,-1],"loss_changes":[4.8929395E3,9.095703E0,3.998047E1,0E0,3.8583636E0,2.0479922E2,0E0,3.0282505E0,0E0,2.3635254E0,0E0,0E0,0E0,0E0,0E0],"parents":[2147483647,0,0,1,1,2,2,4,4,5,5,7,7,9,9],"right_children":[2,4,6,-1,8,10,-1,12,-1,14,-1,-1,-1,-1,-1],"split_conditions":[6.82E-1,6.79E-1,7.46E-1,-3.1174112E-2,8E0,9E0,5.4638833E-2,2E0,-2.7990738E-2,7.03E-1,-3.0462522E-2,-2.5794044E-2,2.523157E-2,4.6346582E-2,5.4912914E-2],"split_indices":[3,3,3,0,0,0,0,0,0,3,0,0,0,0,0],"split_type":[0,0,0,0,0,0,0,0,0,0,0,0,0,0,0],"sum_hessian":[7.2304453E3,4.0615374E3,3.168908E3,4.039436E3,2.2101437E1,6.0635205E2,2.562556E3,1.529271E1,6.8087263E0,5.191846E2,8.716753E1,2.838673E0,1.2454038E1,1.7762799E2,3.4155655E2],"tree_param":{"num_deleted":"0","num_feature":"9","num_nodes":"15","size_leaf_vector":"1"}},{"base_weights":[-2.1357308E-1,2.8154764E-1,-5.9617853E-1,-5.9186155E-1,5.985737E-2,-1.5777315E-1,-2.9964108E-2,-3.001668E-2,-1.289572E-1,-4.823533E-1,1.3542384E-1,-2.6780143E-2,3.6998228E-3,-1.3285138E-2,-2.7225798E-2,-1.4087501E-2,2.8170476E-2],"categories":[],"categories_nodes":[],"categories_segments":[],"categories_sizes":[],"default_left":[0,0,0,0,0,0,0,0,0,0,0,0,0,0,0,0,0],"id":35,"left_children":[1,3,5,7,-1,9,-1,-1,11,13,15,-1,-1,-1,-1,-1,-1],"loss_changes":[1.1034342E3,2.0314272E3,4.3758545E0,5.022064E0,0E0,2.3924465E0,0E0,0E0,2.0734994E0,1.4570951E-2,2.5920463E0,0E0,0E0,0E0,0E0,0E0,0E0],"parents":[2147483647,0,0,1,1,2,2,3,3,5,5,8,8,9,9,10,10],"right_children":[2,4,6,8,-1,10,-1,-1,12,14,16,-1,-1,-1,-1,-1,-1],"split_conditions":[4.53E-1,3.01E-1,4.75E1,2.98E-1,5.985737E-2,4.22E-1,-2.9964108E-2,-3.001668E-2,1.86E1,9E-1,5.07E2,-2.6780143E-2,3.6998228E-3,-1.3285138E-2,-2.7225798E-2,-1.4087501E-2,2.8170476E-2],"split_indices":[8,3,5,3,0,3,0,0,5,6,2,0,0,0,0,0,0],"split_type":[0,0,0,0,0,0,0,0,0,0,0,0,0,0,0,0,0],"sum_hessian":[5.8229556E3,2.5383723E3,3.2845835E3,1.2992986E3,1.2390736E3,2.3453333E1,3.2611301E3,1.2756547E3,2.3643902E1,1.0824761E1,1.2628571E1,7.326069E0,1.6317833E1,3.5893605E0,7.2354007E0,6.568089E0,6.0604815E0],"tree_param":{"num_deleted":"0","num_feature":"9","num_nodes":"17","size_leaf_vector":"1"}},{"base_weights":[7.426366E-2,-6.1416745E-1,3.9467293E-1,-3.0773556E-2,-2.2145781E-1,1.0346378E0,-5.7127374E-1,2.980699E-2,-4.1621444E-1,1.0535501E0,4.413461E-1,3.8708135E-1,-3.0728176E-2,7.504921E-3,-2.6440272E-2,2.5247196E-2,5.2803077E-2,4.356374E-2,-1.7677119E-2,2.8130352E-2,-2.9474562E-2],"categories":[],"categories_nodes":[],"categories_segments":[],"categories_sizes":[],"default_left":[0,0,0,0,0,0,0,0,0,0,0,0,0,0,0,0,0,0,0,0,0],"id":36,"left_children":[1,3,5,-1,7,9,11,-1,13,15,17,19,-1,-1,-1,-1,-1,-1,-1,-1,-1],"loss_changes":[1.5294683E3,9.911499E-1,2.9254795E3,0E0,1.6571145E0,3.1472412E1,7.8489746E1,0E0,5.725832E-1,3.2661133E0,3.0945646E1,1.4410152E1,0E0,0E0,0E0,0E0,0E0,0E0,0E0,0E0,0E0],"parents":[2147483647,0,0,1,1,2,2,4,4,5,5,6,6,8,8,9,9,10,10,11,11],"right_children":[2,4,6,-1,8,10,12,-1,14,16,18,20,-1,-1,-1,-1,-1,-1,-1,-1,-1],"split_conditions":[4.51E1,4.72E0,2.032E3,-3.0773556E-2,1.8E-2,1.998E3,8.1E1,2.980699E-2,1.79E2,5.15E0,8.06E1,2.11E3,-3.0728176E-2,7.504921E-3,-2.6440272E-2,2.5247196E-2,5.2803077E-2,4.356374E-2,-1.7677119E-2,2.8130352E-2,-2.9474562E-2],"split_indices":[5,4,1,0,7,1,5,0,2,4,5,1,0,0,0,0,0,0,0,0,0],"split_type":[0,0,0,0,0,0,0,0,0,0,0,0,0,0,0,0,0,0,0,0,0],"sum_hessian":[6.931759E3,2.2012463E3,4.7305127E3,2.1933977E3,7.848645E0,2.8453337E3,1.8851788E3,1.1134369E0,6.735208E0,2.7566833E3,8.865042E1,8.1131744E1,1.8040471E3,1.0617355E0,5.6734724E0,1.3482609E1,2.7432007E3,5.7470467E1,3.1179955E1,6.913039E1,1.2001357E1],"tree_param":{"num_deleted":"0","num_feature":"9","num_nodes":"21","size_leaf_vector":"1"}},{"base_weights":[-2.920215E-3,1.0810065E0,-3.0365169E-2,5.4077733E-2,1.8150842E-2],"categories":[],"categories_nodes":[],"categories_segments":[],"categories_sizes":[],"default_left":[0,0,0,0,0],"id":37,"left_children":[1,3,-1,-1,-1],"loss_changes":[4.3069595E3,5.336914E-1,0E0,0E0,0E0],"parents":[2147483647,0,0,1,1],"right_children":[2,4,-1,-1,-1],"split_conditions":[3.01E-1,2.42E1,-3.0365169E-2,5.4077733E-2,1.8150842E-2],"split_indices":[3,5,0,0,0],"split_type":[0,0,0,0,0],"sum_hessian":[6.5724346E3,2.3525256E3,4.219909E3,2.350225E3,2.3003495E0],"tree_param":{"num_deleted":"0","num_feature":"9","num_nodes":"5","size_leaf_vector":"1"}},{"base_weights":[1.0122129E-1,-6.12707E-1,1.0190707E0,-3.0894294E-2,1.0899215E-1,-4.0501088E-1,5.2351125E-2,-2.8762564E-2,6.7739236E-1,-3.0453801E-2,2.4038485E-1,4.5882814E-2,1.5043403E-2,4.341196E-2,-4.0976824E-3],"categories":[],"categories_nodes":[],"categories_segments":[],"categories_sizes":[],"default_left":[0,0,0,0,0,0,0,0,0,0,0,0,0,0,0],"id":38,"left_children":[1,3,5,-1,7,9,-1,-1,11,-1,13,-1,-1,-1,-1],"loss_changes":[4.642007E3,1.4960815E1,1.2379419E2,0E0,1.176207E1,8.099061E0,0E0,0E0,1.2103982E0,0E0,3.1519763E0,0E0,0E0,0E0,0E0],"parents":[2147483647,0,0,1,1,2,2,4,4,5,5,8,8,10,10],"right_children":[2,4,6,-1,8,10,-1,-1,12,-1,14,-1,-1,-1,-1],"split_conditions":[2.009E3,1.998E3,6.82E-1,-3.0894294E-2,6.76E-1,6.79E-1,5.2351125E-2,-2.8762564E-2,6.12E2,-3.0453801E-2,2.043E3,4.5882814E-2,1.5043403E-2,4.341196E-2,-4.0976824E-3],"split_indices":[1,1,3,0,3,3,0,0,2,0,1,0,0,0,0],"split_type":[0,0,0,0,0,0,0,0,0,0,0,0,0,0,0],"sum_hessian":[7.0820664E3,3.9837385E3,3.098328E3,3.9554978E3,2.8240665E1,5.938328E1,3.0389446E3,1.2809029E1,1.5431636E1,4.516045E1,1.4222832E1,8.543053E0,6.8885837E0,4.2503643E0,9.972467E0],"tree_param":{"num_deleted":"0","num_feature":"9","num_nodes":"15","size_leaf_vector":"1"}},{"base_weights":[-2.0333289E-1,2.8157192E-1,-2.9737955E-2,-5.8938134E-1,1.1322957E0,-2.9786497E-2,-2.2391684E-1,5.6928605E-2,2.940832E-1,-2.6622176E-2,-2.282729E-3,-2.3272578E-2,2.8602792E-2],"categories":[],"categories_nodes":[],"categories_segments":[],"categories_sizes":[],"default_left":[0,0,0,0,0,0,0,0,0,0,0,0,0],"id":39,"left_children":[1,3,-1,5,7,-1,9,-1,11,-1,-1,-1,-1],"loss_changes":[1.0888065E3,1.8993732E3,0E0,2.8059998E0,6.4871826E0,0E0,1.2535201E0,0E0,2.585624E0,0E0,0E0,0E0,0E0],"parents":[2147483647,0,0,1,1,3,3,4,4,6,6,8,8],"right_children":[2,4,-1,6,8,-1,10,-1,12,-1,-1,-1,-1],"split_conditions":[5.15E0,3.01E-1,-2.9737955E-2,2.98E-1,4.51E1,-2.9786497E-2,1.86E1,5.6928605E-2,4.18E-1,-2.6622176E-2,-2.282729E-3,-2.3272578E-2,2.8602792E-2],"split_indices":[4,3,0,3,5,0,5,0,3,0,0,0,0],"split_type":[0,0,0,0,0,0,0,0,0,0,0,0,0],"sum_hessian":[5.7345825E3,2.5615615E3,3.173021E3,1.2658834E3,1.295678E3,1.2436497E3,2.2233807E1,1.2856925E3,9.985464E0,7.414439E0,1.4819366E1,2.4946394E0,7.490825E0],"tree_param":{"num_deleted":"0","num_feature":"9","num_nodes":"13","size_leaf_vector":"1"}},{"base_weights":[7.665523E-2,-6.086071E-1,3.8837463E-1,-3.0496541E-2,-4.432245E-1,9.7696686E-1,-5.8665067E-1,1.4737889E-1,-2.8841024E-2,1.0095446E0,3.6930746E-1,9.0344375E-1,-3.0430315E-2,-2.0075904E-2,3.285523E-2,1.3446017E-2,5.050401E-2,4.614709E-2,-2.578859E-2,5.1926654E-2,2.2337893E-3],"categories":[],"categories_nodes":[],"categories_segments":[],"categories_sizes":[],"default_left":[0,0,0,0,0,0,0,0,0,0,0,0,0,0,0,0,0,0,0,0,0],"id":40,"left_children":[1,3,5,-1,7,9,11,13,-1,15,17,19,-1,-1,-1,-1,-1,-1,-1,-1,-1],"loss_changes":[1.476747E3,2.0288086E-1,2.7274888E3,0E0,1.7279677E0,5.829004E1,5.908777E1,1.5614179E0,0E0,8.442383E-1,7.51356E1,3.0143738E0,0E0,0E0,0E0,0E0,0E0,0E0,0E0,0E0,0E0],"parents":[2147483647,0,0,1,1,2,2,4,4,5,5,6,6,7,7,9,9,10,10,11,11],"right_children":[2,4,6,-1,8,10,12,14,-1,16,18,20,-1,-1,-1,-1,-1,-1,-1,-1,-1],"split_conditions":[4.51E1,4.24E1,2.056E3,-3.0496541E-2,4.15E-1,1.998E3,6.82E-1,5E0,-2.8841024E-2,9.61E2,6.82E-1,2.1E3,-3.0430315E-2,-2.0075904E-2,3.285523E-2,1.3446017E-2,5.050401E-2,4.614709E-2,-2.578859E-2,5.1926654E-2,2.2337893E-3],"split_indices":[5,5,1,0,3,1,3,0,0,1,3,1,0,0,0,0,0,0,0,0,0],"split_type":[0,0,0,0,0,0,0,0,0,0,0,0,0,0,0,0,0,0,0,0,0],"sum_hessian":[6.9111934E3,2.1605774E3,4.7506157E3,2.1407546E3,1.9822683E1,2.9623413E3,1.7882745E3,3.6377392E0,1.6184944E1,2.810978E3,1.5136328E2,2.5383593E1,1.762891E3,1.8537831E0,1.783956E0,2.3949962E0,2.808583E3,9.309055E1,5.8272736E1,2.175247E1,3.631122E0],"tree_param":{"num_deleted":"0","num_feature":"9","num_nodes":"21","size_leaf_vector":"1"}},{"base_weights":[-9.475348E-3,9.5702934E-1,-5.96408E-1,1.0221664E0,2.7415425E-1,-1.19240746E-1,-3.0104408E-2,5.164001E-2,7.5604844E-1,9.4247407E-1,-3.120296E-1,8.6914974E-1,-2.9492075E-2,-9.854495E-3,5.0857414E-2,1.6554916E-2,5.1910907E-2,2.7398402E-2,-2.5442148E-2,4.9212474E-2,5.7892585E-3],"categories":[],"categories_nodes":[],"categories_segments":[],"categories_sizes":[],"default_left":[0,0,0,0,0,0,0,0,0,0,0,0,0,0,0,0,0,0,0,0,0],"id":41,"left_children":[1,3,5,7,9,11,-1,-1,13,15,17,19,-1,-1,-1,-1,-1,-1,-1,-1,-1],"loss_changes":[3.6487117E3,1.0781616E2,1.0774902E1,5.496338E0,8.373435E1,2.2989769E1,0E0,0E0,2.2340256E1,5.4963837E0,1.9611319E1,1.2726641E0,0E0,0E0,0E0,0E0,0E0,0E0,0E0,0E0,0E0],"parents":[2147483647,0,0,1,1,2,2,3,3,4,4,5,5,8,8,9,9,10,10,11,11],"right_children":[2,4,6,8,10,12,-1,-1,14,16,18,20,-1,-1,-1,-1,-1,-1,-1,-1,-1],"split_conditions":[7.86E2,1.94E1,8.09E2,1.86E1,5E0,3E0,-3.0104408E-2,5.164001E-2,2.6E-1,5.7E-1,5.99E2,2.4E-1,-2.9492075E-2,-9.854495E-3,5.0857414E-2,1.6554916E-2,5.1910907E-2,2.7398402E-2,-2.5442148E-2,4.9212474E-2,5.7892585E-3],"split_indices":[1,5,1,5,0,0,0,0,4,4,1,8,0,0,0,0,0,0,0,0,0],"split_type":[0,0,0,0,0,0,0,0,0,0,0,0,0,0,0,0,0,0,0,0,0],"sum_hessian":[6.430013E3,2.429203E3,4.0008103E3,2.2172139E3,2.1198918E2,4.7323597E1,3.9534866E3,2.1292505E3,8.796332E1,9.8770805E1,1.1321837E2,1.4991159E1,3.2332436E1,1.8967628E1,6.899569E1,1.3977207E1,8.47936E1,2.0752747E1,9.246562E1,1.273849E1,2.2526696E0],"tree_param":{"num_deleted":"0","num_feature":"9","num_nodes":"21","size_leaf_vector":"1"}},{"base_weights":[9.544548E-2,-6.078918E-1,9.751984E-1,-3.0610934E-2,6.240021E-2,-4.0417805E-1,5.0202873E-2,-2.831435E-2,6.1329365E-1,-3.0272815E-2,1.8986374E-1,3.776522E-2,-2.2398295E-2,4.0623754E-2,-9.5712375E-3],"categories":[],"categories_nodes":[],"categories_segments":[],"categories_sizes":[],"default_left":[0,0,0,0,0,0,0,0,0,0,0,0,0,0,0],"id":42,"left_children":[1,3,5,-1,7,9,-1,-1,11,-1,13,-1,-1,-1,-1],"loss_changes":[4.320909E3,1.1293701E1,1.2390576E2,0E0,9.282225E0,7.802122E0,0E0,0E0,2.4829354E0,0E0,4.198836E0,0E0,0E0,0E0,0E0],"parents":[2147483647,0,0,1,1,2,2,4,4,5,5,8,8,10,10],"right_children":[2,4,6,-1,8,10,-1,-1,12,-1,14,-1,-1,-1,-1],"split_conditions":[2.009E3,1.998E3,6.82E-1,-3.0610934E-2,6.76E-1,6.79E-1,5.0202873E-2,-2.831435E-2,7.7E-2,-3.0272815E-2,2.043E3,3.776522E-2,-2.2398295E-2,4.0623754E-2,-9.5712375E-3],"split_indices":[1,1,3,0,3,3,0,0,7,0,1,0,0,0,0],"split_type":[0,0,0,0,0,0,0,0,0,0,0,0,0,0,0],"sum_hessian":[6.981182E3,3.8797458E3,3.1014365E3,3.8549475E3,2.4798157E1,6.329135E1,3.0381453E3,1.1568305E1,1.3229852E1,4.725933E1,1.6032019E1,1.1922725E1,1.3071263E0,5.6595664E0,1.0372453E1],"tree_param":{"num_deleted":"0","num_feature":"9","num_nodes":"15","size_leaf_vector":"1"}},{"base_weights":[-2.0346576E-1,2.7302313E-1,-2.9520279E-2,-5.8246976E-1,1.0781807E0,-2.9566724E-2,-1.08266085E-1,5.4244798E-2,2.7795863E-1,-1.9533034E-2,5.88584E-3,-2.3014776E-2,2.5572896E-2],"categories":[],"categories_nodes":[],"categories_segments":[],"categories_sizes":[],"default_left":[0,0,0,0,0,0,0,0,0,0,0,0,0],"id":43,"left_children":[1,3,-1,5,7,-1,9,-1,11,-1,-1,-1,-1],"loss_changes":[1.0401105E3,1.742225E3,0E0,5.091919E0,6.699707E0,0E0,1.5604849E0,0E0,2.3362358E0,0E0,0E0,0E0,0E0],"parents":[2147483647,0,0,1,1,3,3,4,4,6,6,8,8],"right_children":[2,4,-1,6,8,-1,10,-1,12,-1,-1,-1,-1],"split_conditions":[5.15E0,3.01E-1,-2.9520279E-2,2.98E-1,4.51E1,-2.9566724E-2,4.44E2,5.4244798E-2,4.18E-1,-1.9533034E-2,5.88584E-3,-2.3014776E-2,2.5572896E-2],"split_indices":[4,3,0,3,5,0,2,0,3,0,0,0,0],"split_type":[0,0,0,0,0,0,0,0,0,0,0,0,0],"sum_hessian":[5.6394785E3,2.5274268E3,3.112052E3,1.2255435E3,1.3018832E3,1.2028114E3,2.2732126E1,1.2906963E3,1.118698E1,9.780909E0,1.2951218E1,2.4546924E0,8.732287E0],"tree_param":{"num_deleted":"0","num_feature":"9","num_nodes":"13","size_leaf_vector":"1"}},{"base_weights":[7.489744E-2,-3.0189037E-2,3.7523025E-1,9.642489E-1,-4.7124436E-1,9.678655E-1,5.615593E-1,-4.8447054E-2,-3.0125698E-2,3.9271217E-2,4.8501324E-2,1.6261064E-2,4.407176E-2,-2.359326E-2,4.8212055E-2],"categories":[],"categories_nodes":[],"categories_segments":[],"categories_sizes":[],"default_left":[0,0,0,0,0,0,0,0,0,0,0,0,0,0,0],"id":44,"left_children":[1,-1,3,5,7,9,11,13,-1,-1,-1,-1,-1,-1,-1],"loss_changes":[1.3796873E3,0E0,2.3399326E3,3.4865723E0,1.0686447E2,3.1860352E-1,1.7555285E0,1.9658153E2,0E0,0E0,0E0,0E0,0E0,0E0,0E0],"parents":[2147483647,0,0,2,2,3,3,4,4,5,5,6,6,7,7],"right_children":[2,-1,4,6,8,10,12,14,-1,-1,-1,-1,-1,-1,-1],"split_conditions":[4.51E1,-3.0189037E-2,6.82E-1,6.79E-1,7.46E-1,4.75E1,8E0,9E0,-3.0125698E-2,3.9271217E-2,4.8501324E-2,1.6261064E-2,4.407176E-2,-2.359326E-2,4.8212055E-2],"split_indices":[5,0,3,3,3,5,0,0,0,0,0,0,0,0,0],"split_type":[0,0,0,0,0,0,0,0,0,0,0,0,0,0,0],"sum_hessian":[6.7667236E3,2.075529E3,4.6911943E3,2.7661985E3,1.924996E3,2.740185E3,2.6013521E1,4.563947E2,1.4686013E3,3.6342594E1,2.7038425E3,1.6120049E1,9.893474E0,3.2220898E2,1.3418575E2],"tree_param":{"num_deleted":"0","num_feature":"9","num_nodes":"15","size_leaf_vector":"1"}},{"base_weights":[-1.4298352E-2,9.923563E-1,-2.9871047E-2,4.964105E-2,4.518783E-1,-2.172732E-3,3.77053E-2],"categories":[],"categories_nodes":[],"categories_segments":[],"categories_sizes":[],"default_left":[0,0,0,0,0,0,0],"id":45,"left_children":[1,3,-1,-1,5,-1,-1],"loss_changes":[3.696619E3,1.315918E-1,0E0,0E0,6.045996E-1,0E0,0E0],"parents":[2147483647,0,0,1,1,4,4],"right_children":[2,4,-1,-1,6,-1,-1],"split_conditions":[3.01E-1,2.42E1,-2.9871047E-2,4.964105E-2,9.4E-1,-2.172732E-3,3.77053E-2],"split_indices":[3,5,0,0,6,0,0],"split_type":[0,0,0,0,0,0,0],"sum_hessian":[6.2954346E3,2.3088774E3,3.986557E3,2.3060576E3,2.8197575E0,1.3929745E0,1.4267828E0],"tree_param":{"num_deleted":"0","num_feature":"9","num_nodes":"7","size_leaf_vector":"1"}},{"base_weights":[9.448639E-2,-3.0339334E-2,9.298446E-1,-5.872521E-1,9.597125E-1,2.17248E-3,-3.012068E-2,2.3990671E-1,9.638524E-1,4.2196587E-2,-1.6682502E-2,3.226409E-2,4.825079E-2],"categories":[],"categories_nodes":[],"categories_segments":[],"categories_sizes":[],"default_left":[0,0,0,0,0,0,0,0,0,0,0,0,0],"id":46,"left_children":[1,-1,3,5,7,-1,-1,9,11,-1,-1,-1,-1],"loss_changes":[4.038079E3,0E0,1.431062E2,6.1289597E-1,8.9626465E0,0E0,0E0,6.8554115E0,5.1416016E-1,0E0,0E0,0E0,0E0],"parents":[2147483647,0,0,2,2,3,3,4,4,7,7,8,8],"right_children":[2,-1,4,6,8,-1,-1,10,12,-1,-1,-1,-1],"split_conditions":[1.998E3,-3.0339334E-2,6.79E-1,1.1E-2,6.82E-1,2.17248E-3,-3.012068E-2,2.043E3,2.009E3,4.2196587E-2,-1.6682502E-2,3.226409E-2,4.825079E-2],"split_indices":[1,0,3,7,3,0,0,1,1,0,0,0,0],"split_type":[0,0,0,0,0,0,0,0,0,0,0,0,0],"sum_hessian":[6.8911416E3,3.7463772E3,3.1447644E3,6.0356934E1,3.0844075E3,1.3730683E0,5.8983868E1,1.7975246E1,3.0664324E3,8.525479E0,9.449768E0,1.3179985E1,3.0532522E3],"tree_param":{"num_deleted":"0","num_feature":"9","num_nodes":"13","size_leaf_vector":"1"}},{"base_weights":[-2.0400186E-1,2.6487502E-1,-2.9311478E-2,-5.6721526E-1,9.045829E-1,-5.778036E-1,4.5697782E-2,4.879918E-1,1.0159936E0,-2.9238863E-2,-9.9136885E-3,-2.007245E-2,4.062007E-2,5.1074404E-2,1.7128786E-2],"categories":[],"categories_nodes":[],"categories_segments":[],"categories_sizes":[],"default_left":[0,0,0,0,0,0,0,0,0,0,0,0,0,0,0],"id":47,"left_children":[1,3,-1,5,7,9,-1,11,13,-1,-1,-1,-1,-1,-1],"loss_changes":[9.8229944E2,1.310923E3,0E0,1.7318817E1,6.411926E1,2.6991882E0,0E0,8.564303E1,3.7110596E0,0E0,0E0,0E0,0E0,0E0,0E0],"parents":[2147483647,0,0,1,1,3,3,4,4,5,5,7,7,8,8],"right_children":[2,4,-1,6,8,10,-1,12,14,-1,-1,-1,-1,-1,-1],"split_conditions":[5.15E0,1.86E1,-2.9311478E-2,7.86E2,7.86E2,1.83E1,4.5697782E-2,5E0,4.51E1,-2.9238863E-2,-9.9136885E-3,-2.007245E-2,4.062007E-2,5.1074404E-2,1.7128786E-2],"split_indices":[4,5,0,1,1,5,0,0,5,0,0,0,0,0,0],"split_type":[0,0,0,0,0,0,0,0,0,0,0,0,0,0,0],"sum_hessian":[5.479173E3,2.4608125E3,3.01836E3,1.069626E3,1.3911865E3,1.0626395E3,6.9864893E0,2.9468155E2,1.096505E3,1.0429354E3,1.9704147E1,7.869214E1,2.1598941E2,1.087118E3,9.386919E0],"tree_param":{"num_deleted":"0","num_feature":"9","num_nodes":"15","size_leaf_vector":"1"}},{"base_weights":[7.414252E-2,-5.9823275E-1,3.6547422E-1,-2.9982379E-2,-4.525585E-1,9.118532E-1,-5.6319165E-1,1.8245593E-1,-5.287668E-1,9.3435836E-1,3.6780483E-1,8.8081324E-1,-2.991632E-2,-1.6714983E-2,3.2519728E-2,-1.3948301E-2,-2.8413588E-2,3.4345772E-2,4.685339E-2,4.6180993E-2,-2.1848883E-2,4.8253354E-2,1.2166785E-3],"categories":[],"categories_nodes":[],"categories_segments":[],"categories_sizes":[],"default_left":[0,0,0,0,0,0,0,0,0,0,0,0,0,0,0,0,0,0,0,0,0,0,0],"id":48,"left_children":[1,3,5,-1,7,9,11,13,15,17,19,21,-1,-1,-1,-1,-1,-1,-1,-1,-1,-1,-1],"loss_changes":[1.2911785E3,1.3934326E-1,2.3339287E3,0E0,1.2213373E0,3.511084E1,8.698218E1,9.994625E-1,4.880619E-2,1.2197266E0,5.2593166E1,2.92663E0,0E0,0E0,0E0,0E0,0E0,0E0,0E0,0E0,0E0,0E0,0E0],"parents":[2147483647,0,0,1,1,2,2,4,4,5,5,6,6,7,7,8,8,9,9,10,10,11,11],"right_children":[2,4,6,-1,8,10,12,14,16,18,20,22,-1,-1,-1,-1,-1,-1,-1,-1,-1,-1,-1],"split_conditions":[4.51E1,4.24E1,2.043E3,-2.9982379E-2,1.8E-2,1.998E3,6.82E-1,5E0,1.79E2,4.75E1,6.79E-1,2.1E3,-2.991632E-2,-1.6714983E-2,3.2519728E-2,-1.3948301E-2,-2.8413588E-2,3.4345772E-2,4.685339E-2,4.6180993E-2,-2.1848883E-2,4.8253354E-2,1.2166785E-3],"split_indices":[5,5,1,0,7,1,3,0,2,5,3,1,0,0,0,0,0,0,0,0,0,0,0],"split_type":[0,0,0,0,0,0,0,0,0,0,0,0,0,0,0,0,0,0,0,0,0,0,0],"sum_hessian":[6.589422E3,1.9916849E3,4.5977373E3,1.9694408E3,2.2244104E1,2.894677E3,1.70306E3,2.2340934E0,2.0010012E1,2.7790027E3,1.1567422E2,3.988194E1,1.6631781E3,1.1973845E0,1.0367088E0,3.833196E0,1.6176815E1,3.2855827E1,2.746147E3,6.833302E1,4.734119E1,3.619461E1,3.6873279E0],"tree_param":{"num_deleted":"0","num_feature":"9","num_nodes":"23","size_leaf_vector":"1"}},{"base_weights":[-4.5901374E-3,9.5475644E-1,-2.9641673E-2,4.7759026E-2,4.4512787E-1,3.676633E-2,-1.9096591E-3],"categories":[],"categories_nodes":[],"categories_segments":[],"categories_sizes":[],"default_left":[0,0,0,0,0,0,0],"id":49,"left_children":[1,3,-1,-1,5,-1,-1],"loss_changes":[3.4925132E3,8.325195E-2,0E0,0E0,5.6507546E-1,0E0,0E0],"parents":[2147483647,0,0,1,1,4,4],"right_children":[2,4,-1,-1,6,-1,-1],"split_conditions":[3.01E-1,2.42E1,-2.9641673E-2,4.7759026E-2,7.98E2,3.676633E-2,-1.9096591E-3],"split_indices":[3,5,0,0,1,0,0],"split_type":[0,0,0,0,0,0,0],"sum_hessian":[6.1867837E3,2.3513772E3,3.8354065E3,2.3485486E3,2.8285627E0,1.4415898E0,1.3869727E0],"tree_param":{"num_deleted":"0","num_feature":"9","num_nodes":"7","size_leaf_vector":"1"}},{"base_weights":[9.186984E-2,-5.964777E-1,8.8245964E-1,-3.0049061E-2,1.0685187E-1,6.8906564E-1,4.6384554E-2,-1.8414466E-1,5.106613E-1,6.5191656E-1,7.7485573E-1,2.7395615E-2,-1.6573885E-2,-1.8073823E-2,3.3057462E-2,3.2897078E-2,6.36085E-3,1.1235702E-2,3.8926713E-2],"categories":[],"categories_nodes":[],"categories_segments":[],"categories_sizes":[],"default_left":[0,0,0,0,0,0,0,0,0,0,0,0,0,0,0,0,0,0,0],"id":50,"left_children":[1,3,5,-1,7,9,-1,11,13,15,17,-1,-1,-1,-1,-1,-1,-1,-1],"loss_changes":[3.6704688E3,1.1484741E1,2.6820557E1,0E0,2.8894355E0,1.4036255E0,0E0,1.7520976E0,1.5814228E0,1.2574615E0,1.8057251E-1,0E0,0E0,0E0,0E0,0E0,0E0,0E0,0E0],"parents":[2147483647,0,0,1,1,2,2,4,4,5,5,7,7,8,8,9,9,10,10],"right_children":[2,4,6,-1,8,10,-1,12,14,16,18,-1,-1,-1,-1,-1,-1,-1,-1],"split_conditions":[6.82E-1,6.79E-1,7.46E-1,-3.0049061E-2,1.09E0,8.39E-1,4.6384554E-2,8.3E-1,9.68E0,7.37E-1,8.1E-1,2.7395615E-2,-1.6573885E-2,-1.8073823E-2,3.3057462E-2,3.2897078E-2,6.36085E-3,1.1235702E-2,3.8926713E-2],"split_indices":[3,3,3,0,6,8,0,6,4,3,6,0,0,0,0,0,0,0,0],"split_type":[0,0,0,0,0,0,0,0,0,0,0,0,0,0,0,0,0,0,0],"sum_hessian":[6.742731E3,3.604567E3,3.138164E3,3.5817778E3,2.2789192E1,5.979157E2,2.5402485E3,1.3560844E1,9.228349E0,4.2324136E2,1.7467436E2,1.8164649E0,1.1744379E1,1.1517088E0,8.076639E0,4.1818552E2,5.055844E0,1.5725943E0,1.7310176E2],"tree_param":{"num_deleted":"0","num_feature":"9","num_nodes":"19","size_leaf_vector":"1"}},{"base_weights":[-2.0165716E-1,2.5157294E-1,-2.9111693E-2,-5.757486E-1,9.901782E-1,-2.916804E-2,-1.5619864E-1,9.956446E-1,3.1166095E-1,-2.177275E-2,1.470952E-3,4.988093E-2,3.510107E-2,-2.2556372E-2,2.768362E-2],"categories":[],"categories_nodes":[],"categories_segments":[],"categories_sizes":[],"default_left":[0,0,0,0,0,0,0,0,0,0,0,0,0,0,0],"id":51,"left_children":[1,3,-1,5,7,-1,9,11,13,-1,-1,-1,-1,-1,-1],"loss_changes":[9.23066E2,1.493332E3,0E0,3.5908203E0,4.4781494E0,0E0,1.1485263E0,4.1625977E-2,2.423187E0,0E0,0E0,0E0,0E0,0E0,0E0],"parents":[2147483647,0,0,1,1,3,3,4,4,6,6,7,7,8,8],"right_children":[2,4,-1,6,8,-1,10,12,14,-1,-1,-1,-1,-1,-1],"split_conditions":[5.15E0,3.01E-1,-2.9111693E-2,2.98E-1,4.53E-1,-2.916804E-2,6.7E2,4.72E0,4.18E-1,-2.177275E-2,1.470952E-3,4.988093E-2,3.510107E-2,-2.2556372E-2,2.768362E-2],"split_indices":[4,3,0,3,8,0,1,4,3,0,0,0,0,0,0],"split_type":[0,0,0,0,0,0,0,0,0,0,0,0,0,0,0],"sum_hessian":[5.349605E3,2.4418894E3,2.9077156E3,1.1518771E3,1.2900123E3,1.1309668E3,2.0910246E1,1.2792389E3,1.0773396E1,7.8117375E0,1.3098508E1,1.2683147E3,1.0924228E1,2.386713E0,8.3866825E0],"tree_param":{"num_deleted":"0","num_feature":"9","num_nodes":"15","size_leaf_vector":"1"}},{"base_weights":[6.708812E-2,-5.9400874E-1,3.541155E-1,-2.9743502E-2,-3.472099E-1,8.88557E-1,-5.4996336E-1,2.1625329E-3,-2.5854975E-2,8.9386535E-1,-4.6951503E-1,8.04173E-1,-2.9683549E-2,1.8902013E-2,-1.8563593E-2,4.5202136E-2,2.7252754E-2,-1.423031E-3,-2.7256886E-2,4.5626257E-2,2.2059022E-2],"categories":[],"categories_nodes":[],"categories_segments":[],"categories_sizes":[],"default_left":[0,0,0,0,0,0,0,0,0,0,0,0,0,0,0,0,0,0,0,0,0],"id":52,"left_children":[1,3,5,-1,7,9,11,13,-1,15,17,19,-1,-1,-1,-1,-1,-1,-1,-1,-1],"loss_changes":[1.2284232E3,2.1002197E-1,2.1814697E3,0E0,5.4822946E-1,2.087378E1,9.976819E1,7.0344955E-1,0E0,9.54126E0,3.7480354E-1,1.6772308E0,0E0,0E0,0E0,0E0,0E0,0E0,0E0,0E0,0E0],"parents":[2147483647,0,0,1,1,2,2,4,4,5,5,6,6,7,7,9,9,10,10,11,11],"right_children":[2,4,6,-1,8,10,12,14,-1,16,18,20,-1,-1,-1,-1,-1,-1,-1,-1,-1],"split_conditions":[4.53E-1,4.72E0,2.032E3,-2.9743502E-2,4.18E-1,7.46E-1,6.82E-1,1.09E0,-2.5854975E-2,1.998E3,9.68E0,6.79E-1,-2.9683549E-2,1.8902013E-2,-1.8563593E-2,4.5202136E-2,2.7252754E-2,-1.423031E-3,-2.7256886E-2,4.5626257E-2,2.2059022E-2],"split_indices":[8,4,1,0,3,3,3,6,0,1,4,3,0,0,0,0,0,0,0,0,0],"split_type":[0,0,0,0,0,0,0,0,0,0,0,0,0,0,0,0,0,0,0,0,0],"sum_hessian":[6.4716963E3,1.9588645E3,4.5128315E3,1.9506469E3,8.21765E0,2.8362275E3,1.6766041E3,3.0116208E0,5.20603E0,2.8255251E3,1.0702398E1,5.1879803E1,1.6247244E3,1.4947536E0,1.5168673E0,2.7438745E3,8.1650566E1,1.7678884E0,8.93451E0,3.8787853E1,1.3091948E1],"tree_param":{"num_deleted":"0","num_feature":"9","num_nodes":"21","size_leaf_vector":"1"}},{"base_weights":[-1.0830854E-2,9.207981E-1,-2.9421149E-2,4.6076607E-2,5.398531E-1,7.191669E-1,-4.098797E-3,1.3694118E-2,4.0689133E-2],"categories":[],"categories_nodes":[],"categories_segments":[],"categories_sizes":[],"default_left":[0,0,0,0,0,0,0,0,0],"id":53,"left_children":[1,3,-1,-1,5,7,-1,-1,-1],"loss_changes":[3.240743E3,1.4697266E-1,0E0,0E0,8.2237196E-1,5.322695E-3,0E0,0E0,0E0],"parents":[2147483647,0,0,1,1,4,4,5,5],"right_children":[2,4,-1,-1,6,8,-1,-1,-1],"split_conditions":[3.01E-1,7.98E2,-2.9421149E-2,4.6076607E-2,7.5E-2,9.1E-1,-4.098797E-3,1.3694118E-2,4.0689133E-2],"split_indices":[3,1,0,0,7,6,0,0,0],"split_type":[0,0,0,0,0,0,0,0,0],"sum_hessian":[6.020542E3,2.3038867E3,3.7166553E3,2.29804E3,5.84664E0,4.416532E0,1.4301081E0,1.4565127E0,2.9600196E0],"tree_param":{"num_deleted":"0","num_feature":"9","num_nodes":"9","size_leaf_vector":"1"}},{"base_weights":[9.935271E-2,-5.91716E-1,8.766131E-1,-2.9845929E-2,9.5112674E-2,-2.9406358E-2,8.970711E-1,-2.7525345E-2,5.8161074E-1,3.3027613E-1,4.498146E-2,1.5156989E-2,4.1514307E-2,3.9938793E-2,-6.8667396E-3],"categories":[],"categories_nodes":[],"categories_segments":[],"categories_sizes":[],"default_left":[0,0,0,0,0,0,0,0,0,0,0,0,0,0,0],"id":54,"left_children":[1,3,5,-1,7,-1,9,-1,11,13,-1,-1,-1,-1,-1],"loss_changes":[3.526763E3,1.2476318E1,9.312573E1,0E0,8.798267E0,0E0,4.1223145E0,0E0,8.479333E-1,3.456034E0,0E0,0E0,0E0,0E0,0E0],"parents":[2147483647,0,0,1,1,2,2,4,4,6,6,8,8,9,9],"right_children":[2,4,6,-1,8,-1,10,-1,12,14,-1,-1,-1,-1,-1],"split_conditions":[2.009E3,1.998E3,6.79E-1,-2.9845929E-2,6.76E-1,-2.9406358E-2,6.82E-1,-2.7525345E-2,1.04E0,2.043E3,4.498146E-2,1.5156989E-2,4.1514307E-2,3.9938793E-2,-6.8667396E-3],"split_indices":[1,1,3,0,3,0,3,0,6,1,0,0,0,0,0],"split_type":[0,0,0,0,0,0,0,0,0,0,0,0,0,0,0],"sum_hessian":[6.563846E3,3.4747002E3,3.0891462E3,3.4487078E3,2.599231E1,4.2169556E1,3.0469768E3,1.1112979E1,1.4879331E1,1.4274793E1,3.032702E3,8.065955E0,6.813375E0,6.7768526E0,7.4979396E0],"tree_param":{"num_deleted":"0","num_feature":"9","num_nodes":"15","size_leaf_vector":"1"}},{"base_weights":[-1.9901492E-1,2.4546365E-1,-2.8921714E-2,-5.707793E-1,9.538515E-1,-2.8976021E-2,-1.0586543E-1,4.7912605E-2,3.6306804E-1,-1.922858E-2,7.758791E-3,-2.1289663E-2,2.9216966E-2],"categories":[],"categories_nodes":[],"categories_segments":[],"categories_sizes":[],"default_left":[0,0,0,0,0,0,0,0,0,0,0,0,0],"id":55,"left_children":[1,3,-1,5,7,-1,9,-1,11,-1,-1,-1,-1],"loss_changes":[8.8077747E2,1.3914232E3,0E0,4.483124E0,3.0012207E0,0E0,1.6501217E0,0E0,2.1923313E0,0E0,0E0,0E0,0E0],"parents":[2147483647,0,0,1,1,3,3,4,4,6,6,8,8],"right_children":[2,4,-1,6,8,-1,10,-1,12,-1,-1,-1,-1],"split_conditions":[5.15E0,3.01E-1,-2.8921714E-2,2.98E-1,4.53E-1,-2.8976021E-2,4.34E2,4.7912605E-2,4.18E-1,-1.922858E-2,7.758791E-3,-2.1289663E-2,2.9216966E-2],"split_indices":[4,3,0,3,8,0,2,0,3,0,0,0,0],"split_type":[0,0,0,0,0,0,0,0,0,0,0,0,0],"sum_hessian":[5.220867E3,2.4044631E3,2.816404E3,1.1172738E3,1.2871893E3,1.0964132E3,2.086065E1,1.2770549E3,1.0134331E1,9.860093E0,1.1000557E1,2.017472E0,8.1168585E0],"tree_param":{"num_deleted":"0","num_feature":"9","num_nodes":"13","size_leaf_vector":"1"}},{"base_weights":[6.910454E-2,-5.887678E-1,3.4918964E-1,-2.9512689E-2,-4.1561025E-1,8.5304004E-1,-5.5216074E-1,6.509429E-2,-2.7767682E-2,8.754547E-1,3.316239E-1,8.426833E-1,-2.9446695E-2,-2.065993E-2,2.7354255E-2,1.7444175E-2,4.378533E-2,4.3312464E-2,-2.3611927E-2,4.6121143E-2,5.8123427E-3],"categories":[],"categories_nodes":[],"categories_segments":[],"categories_sizes":[],"default_left":[0,0,0,0,0,0,0,0,0,0,0,0,0,0,0,0,0,0,0,0,0],"id":56,"left_children":[1,3,5,-1,7,9,11,13,-1,15,17,19,-1,-1,-1,-1,-1,-1,-1,-1,-1],"loss_changes":[1.1634591E3,2.3980713E-1,2.0116838E3,0E0,1.3409038E0,3.291382E1,8.197589E1,1.440905E0,0E0,5.5664062E-2,5.1425285E1,2.2801628E0,0E0,0E0,0E0,0E0,0E0,0E0,0E0,0E0,0E0],"parents":[2147483647,0,0,1,1,2,2,4,4,5,5,6,6,7,7,9,9,10,10,11,11],"right_children":[2,4,6,-1,8,10,12,14,-1,16,18,20,-1,-1,-1,-1,-1,-1,-1,-1,-1],"split_conditions":[4.51E1,4.25E-1,2.043E3,-2.9512689E-2,4.15E-1,1.998E3,6.82E-1,5E0,-2.7767682E-2,9.61E2,6.79E-1,2.1E3,-2.9446695E-2,-2.065993E-2,2.7354255E-2,1.7444175E-2,4.378533E-2,4.3312464E-2,-2.3611927E-2,4.6121143E-2,5.8123427E-3],"split_indices":[5,8,1,0,3,1,3,0,0,1,3,1,0,0,0,0,0,0,0,0,0],"split_type":[0,0,0,0,0,0,0,0,0,0,0,0,0,0,0,0,0,0,0,0,0],"sum_hessian":[6.3121006E3,1.8845383E3,4.4275625E3,1.8661152E3,1.8423117E1,2.840045E3,1.5875176E3,4.26975E0,1.4153366E1,2.722338E3,1.17707146E2,4.0214767E1,1.5473027E3,2.2147336E0,2.0550165E0,1.9643672E0,2.7203735E3,7.064537E1,4.7061775E1,3.5993988E1,4.220779E0],"tree_param":{"num_deleted":"0","num_feature":"9","num_nodes":"21","size_leaf_vector":"1"}},{"base_weights":[-2.4239856E-3,4.45039E-2,-2.9209778E-2],"categories":[],"categories_nodes":[],"categories_segments":[],"categories_sizes":[],"default_left":[0,0,0],"id":57,"left_children":[1,-1,-1],"loss_changes":[3.0611006E3,0E0,0E0],"parents":[2147483647,0,0],"right_children":[2,-1,-1],"split_conditions":[3.01E-1,4.45039E-2,-2.9209778E-2],"split_indices":[3,0,0],"split_type":[0,0,0],"sum_hessian":[5.893434E3,2.3254329E3,3.5680012E3],"tree_param":{"num_deleted":"0","num_feature":"9","num_nodes":"3","size_leaf_vector":"1"}},{"base_weights":[9.170707E-2,-2.9608736E-2,8.4254295E-1,-5.523272E-1,8.673842E-1,-2.929466E-2,-1.6890782E-1,2.1423343E-1,4.3541115E-2,2.1918662E-2,-2.326235E-2,1.7076343E-3,4.516543E-2],"categories":[],"categories_nodes":[],"categories_segments":[],"categories_sizes":[],"default_left":[0,0,0,0,0,0,0,0,0,0,0,0,0],"id":58,"left_children":[1,-1,3,5,7,-1,9,11,-1,-1,-1,-1,-1],"loss_changes":[3.3270034E3,0E0,1.07493164E2,6.0437584E-1,6.628662E0,0E0,1.2484869E0,2.1056137E0,0E0,0E0,0E0,0E0,0E0],"parents":[2147483647,0,0,2,2,3,3,4,4,6,6,7,7],"right_children":[2,-1,4,6,8,-1,10,12,-1,-1,-1,-1,-1],"split_conditions":[1.998E3,-2.9608736E-2,6.79E-1,8.06E1,6.82E-1,-2.929466E-2,2.02E3,2.077E3,4.3541115E-2,2.1918662E-2,-2.326235E-2,1.7076343E-3,4.516543E-2],"split_indices":[1,0,3,5,3,0,1,1,0,0,0,0,0],"split_type":[0,0,0,0,0,0,0,0,0,0,0,0,0],"sum_hessian":[6.4773154E3,3.389907E3,3.0874084E3,5.3650074E1,3.0337583E3,4.8845848E1,4.804226E0,1.6217169E1,3.017541E3,1.4183459E0,3.3858798E0,1.3689231E1,2.5279377E0],"tree_param":{"num_deleted":"0","num_feature":"9","num_nodes":"13","size_leaf_vector":"1"}},{"base_weights":[-1.9872978E-1,2.3537654E-1,-2.873812E-2,-5.67863E-1,9.176793E-1,-2.8786985E-2,-2.0136845E-1,4.619338E-2,1.5651768E-1,-1.8801048E-2,2.805082E-3,-2.252892E-2,1.8199002E-2],"categories":[],"categories_nodes":[],"categories_segments":[],"categories_sizes":[],"default_left":[0,0,0,0,0,0,0,0,0,0,0,0,0],"id":59,"left_children":[1,3,-1,5,7,-1,9,-1,11,-1,-1,-1,-1],"loss_changes":[8.2968054E2,1.2936364E3,0E0,3.0142212E0,5.866577E0,0E0,1.116136E0,0E0,1.6118612E0,0E0,0E0,0E0,0E0],"parents":[2147483647,0,0,1,1,3,3,4,4,6,6,8,8],"right_children":[2,4,-1,6,8,-1,10,-1,12,-1,-1,-1,-1],"split_conditions":[5.15E0,3.01E-1,-2.873812E-2,2.98E-1,4.51E1,-2.8786985E-2,7.74E2,4.619338E-2,4.18E-1,-1.8801048E-2,2.805082E-3,-2.252892E-2,1.8199002E-2],"split_indices":[4,3,0,3,5,0,1,0,3,0,0,0,0],"split_type":[0,0,0,0,0,0,0,0,0,0,0,0,0],"sum_hessian":[5.0808105E3,2.3584734E3,2.7223372E3,1.0833131E3,1.2751604E3,1.0599614E3,2.335166E1,1.2646648E3,1.049555E1,1.3639192E1,9.712468E0,2.3746796E0,8.120871E0],"tree_param":{"num_deleted":"0","num_feature":"9","num_nodes":"13","size_leaf_vector":"1"}},{"base_weights":[7.14287E-2,-5.843758E-1,3.4416962E-1,-2.9294878E-2,-1.5327199E-1,8.2163346E-1,-5.611411E-1,3.3914205E-2,-2.5464267E-2,8.4546906E-1,2.4816678E-1,7.240867E-1,-5.844173E-1,4.2325154E-2,-8.297583E-3,3.9536767E-2,-2.9286006E-2,4.1520882E-2,5.8363113E-3,-1.4557945E-2,-2.9252438E-2],"categories":[],"categories_nodes":[],"categories_segments":[],"categories_sizes":[],"default_left":[0,0,0,0,0,0,0,0,0,0,0,0,0,0,0,0,0,0,0,0,0],"id":60,"left_children":[1,3,5,-1,7,9,11,-1,-1,13,15,17,19,-1,-1,-1,-1,-1,-1,-1,-1],"loss_changes":[1.1036428E3,1.0992432E0,1.8840962E3,0E0,2.6337302E0,3.8793457E1,4.5454132E1,0E0,0E0,3.005249E0,5.2621758E1,1.6611795E0,1.0357666E-1,0E0,0E0,0E0,0E0,0E0,0E0,0E0,0E0],"parents":[2147483647,0,0,1,1,2,2,4,4,5,5,6,6,9,9,10,10,11,11,12,12],"right_children":[2,4,6,-1,8,10,12,-1,-1,14,16,18,20,-1,-1,-1,-1,-1,-1,-1,-1],"split_conditions":[4.53E-1,4.72E0,2.056E3,-2.9294878E-2,4.15E-1,2.009E3,6.82E-1,3.3914205E-2,-2.5464267E-2,7.46E-1,6.82E-1,2.1E3,6.85E-1,4.2325154E-2,-8.297583E-3,3.9536767E-2,-2.9286006E-2,4.1520882E-2,5.8363113E-3,-1.4557945E-2,-2.9252438E-2],"split_indices":[8,4,1,0,3,1,3,0,0,3,3,1,3,0,0,0,0,0,0,0,0],"split_type":[0,0,0,0,0,0,0,0,0,0,0,0,0,0,0,0,0,0,0,0,0],"sum_hessian":[6.168141E3,1.8114276E3,4.3567134E3,1.8046981E3,6.729533E0,2.8524268E3,1.5042869E3,1.746031E0,4.9835024E0,2.738144E3,1.1428273E2,2.6223265E1,1.4780636E3,2.7355103E3,2.6335845E0,6.9266335E1,4.5016396E1,2.2003792E1,4.2194734E0,4.1688547E0,1.4738947E3],"tree_param":{"num_deleted":"0","num_feature":"9","num_nodes":"21","size_leaf_vector":"1"}},{"base_weights":[-7.4039474E-3,8.6101735E-1,-2.9007642E-2,4.3191075E-2,6.595772E-1,7.446032E-1,3.1933305E-1,3.972152E-2,2.981869E-3,2.8094415E-2,-2.664327E-2],"categories":[],"categories_nodes":[],"categories_segments":[],"categories_sizes":[],"default_left":[0,0,0,0,0,0,0,0,0,0,0],"id":61,"left_children":[1,3,-1,-1,5,7,9,-1,-1,-1,-1],"loss_changes":[2.8603289E3,7.2106934E-1,0E0,0E0,7.92326E-1,8.992901E-1,2.1328838E0,0E0,0E0,0E0,0E0],"parents":[2147483647,0,0,1,1,4,4,5,5,6,6],"right_children":[2,4,-1,-1,6,8,10,-1,-1,-1,-1],"split_conditions":[3.01E-1,2.98E-1,-2.9007642E-2,4.3191075E-2,1.98E-1,8.73E2,5E0,3.972152E-2,2.981869E-3,2.8094415E-2,-2.664327E-2],"split_indices":[3,3,0,0,8,2,0,0,0,0,0],"split_type":[0,0,0,0,0,0,0,0,0,0,0],"sum_hessian":[5.748703E3,2.2844456E3,3.4642573E3,2.2498384E3,3.4607204E1,2.6737215E1,7.8699894E0,2.477516E1,1.9620548E0,6.391486E0,1.4785032E0],"tree_param":{"num_deleted":"0","num_feature":"9","num_nodes":"11","size_leaf_vector":"1"}},{"base_weights":[9.324223E-2,-5.8656263E-1,7.9792166E-1,-2.9356811E-2,-3.4649485E-1,6.1528134E-1,4.210639E-2,4.8147845E-3,-4.189899E-1,7.8355724E-1,-2.8988425E-2,-2.5740692E-2,2.0969114E-3,1.5678087E-2,4.0017776E-2],"categories":[],"categories_nodes":[],"categories_segments":[],"categories_sizes":[],"default_left":[0,0,0,0,0,0,0,0,0,0,0,0,0,0,0],"id":62,"left_children":[1,3,5,-1,7,9,-1,-1,11,13,-1,-1,-1,-1,-1],"loss_changes":[3.0249973E3,2.3913574E-1,2.4515137E1,0E0,3.6456466E-1,1.2270647E2,0E0,0E0,4.1318774E-1,3.9595337E0,0E0,0E0,0E0,0E0,0E0],"parents":[2147483647,0,0,1,1,2,2,4,4,5,5,8,8,9,9],"right_children":[2,4,6,-1,8,10,-1,-1,12,14,-1,-1,-1,-1,-1],"split_conditions":[6.79E-1,8.06E1,7.46E-1,-2.9356811E-2,1.5E-2,9E0,4.210639E-2,4.8147845E-3,7.5E-2,6.82E-1,-2.8988425E-2,-2.5740692E-2,2.0969114E-3,1.5678087E-2,4.0017776E-2],"split_indices":[3,5,3,0,7,0,0,0,7,3,0,0,0,0,0],"split_type":[0,0,0,0,0,0,0,0,0,0,0,0,0,0,0],"sum_hessian":[6.312671E3,3.2131294E3,3.0995413E3,3.204029E3,9.100204E0,6.0692303E2,2.4926184E3,1.23411E0,7.866094E0,5.323121E2,7.4610954E1,6.415456E0,1.4506387E0,1.9047602E1,5.132645E2],"tree_param":{"num_deleted":"0","num_feature":"9","num_nodes":"15","size_leaf_vector":"1"}},{"base_weights":[-1.8768272E-1,2.4078819E-1,-2.856253E-2,-5.5022246E-1,7.8668267E-1,-5.670938E-1,5.3587288E-2,3.749697E-1,8.351822E-1,-2.8566346E-2,-1.388445E-2,4.2467725E-2,-2.7128607E-2,4.3448854E-2,-2.7225254E-2,3.3884242E-2,4.412575E-2],"categories":[],"categories_nodes":[],"categories_segments":[],"categories_sizes":[],"default_left":[0,0,0,0,0,0,0,0,0,0,0,0,0,0,0,0,0],"id":63,"left_children":[1,3,-1,5,7,9,11,13,15,-1,-1,-1,-1,-1,-1,-1,-1],"loss_changes":[8.140082E2,1.0107993E3,0E0,9.769318E0,2.733905E1,9.8080444E-1,1.3222245E1,6.758792E1,8.631653E0,0E0,0E0,0E0,0E0,0E0,0E0,0E0,0E0],"parents":[2147483647,0,0,1,1,3,3,4,4,5,5,6,6,7,7,8,8],"right_children":[2,4,-1,6,8,10,12,14,16,-1,-1,-1,-1,-1,-1,-1,-1],"split_conditions":[5.15E0,1.86E1,-2.856253E-2,1.83E1,1.98E1,1.81E1,9E-2,2.7E-1,3E0,-2.8566346E-2,-1.388445E-2,4.2467725E-2,-2.7128607E-2,4.3448854E-2,-2.7225254E-2,3.3884242E-2,4.412575E-2],"split_indices":[4,5,0,5,5,5,4,4,0,0,0,0,0,0,0,0,0],"split_type":[0,0,0,0,0,0,0,0,0,0,0,0,0,0,0,0,0],"sum_hessian":[4.951127E3,2.338849E3,2.612278E3,9.5501196E2,1.383837E3,9.291121E2,2.5899872E1,1.4675586E2,1.2370812E3,9.1475775E2,1.4354389E1,1.0910961E1,1.4988911E1,9.550089E1,5.125497E1,2.8940826E2,9.476729E2],"tree_param":{"num_deleted":"0","num_feature":"9","num_nodes":"17","size_leaf_vector":"1"}},{"base_weights":[6.742572E-2,-5.8021504E-1,3.3561057E-1,-2.9087901E-2,-1.8000907E-1,8.1053394E-1,-5.3623265E-1,2.2173936E-2,-3.7501508E-1,8.248496E-1,3.7403327E-1,2.9466054E-1,-2.9038701E-2,6.9381953E-3,-2.5141973E-2,2.372129E-2,4.13214E-2,3.4515645E-2,-1.4796281E-2,2.2412177E-2,-2.7914086E-2],"categories":[],"categories_nodes":[],"categories_segments":[],"categories_sizes":[],"default_left":[0,0,0,0,0,0,0,0,0,0,0,0,0,0,0,0,0,0,0,0,0],"id":64,"left_children":[1,3,5,-1,7,9,11,-1,13,15,17,19,-1,-1,-1,-1,-1,-1,-1,-1,-1],"loss_changes":[1.0476328E3,9.859619E-1,1.7665045E3,0E0,1.1671638E0,1.6947998E1,5.5858856E1,0E0,5.1716906E-1,1.0863037E0,1.9173685E1,1.0366055E1,0E0,0E0,0E0,0E0,0E0,0E0,0E0,0E0,0E0],"parents":[2147483647,0,0,1,1,2,2,4,4,5,5,6,6,8,8,9,9,10,10,11,11],"right_children":[2,4,6,-1,8,10,12,-1,14,16,18,20,-1,-1,-1,-1,-1,-1,-1,-1,-1],"split_conditions":[4.53E-1,4.72E0,2.032E3,-2.9087901E-2,1.79E2,1.998E3,8.16E-1,2.2173936E-2,8.9E-1,5.15E0,8.06E1,2.11E3,-2.9038701E-2,6.9381953E-3,-2.5141973E-2,2.372129E-2,4.13214E-2,3.4515645E-2,-1.4796281E-2,2.2412177E-2,-2.7914086E-2],"split_indices":[8,4,1,0,2,1,8,0,6,4,5,1,0,0,0,0,0,0,0,0,0],"split_type":[0,0,0,0,0,0,0,0,0,0,0,0,0,0,0,0,0,0,0,0,0],"sum_hessian":[6.029593E3,1.7653287E3,4.264264E3,1.758097E3,7.231788E0,2.7605605E3,1.5037034E3,1.4193994E0,5.812389E0,2.6720376E3,8.8522934E1,7.622143E1,1.4274819E3,1.1409311E0,4.671458E0,1.3333856E1,2.6587039E3,6.0113625E1,2.8409306E1,6.499308E1,1.1228348E1],"tree_param":{"num_deleted":"0","num_feature":"9","num_nodes":"21","size_leaf_vector":"1"}},{"base_weights":[-1.3075272E-2,8.365621E-1,-2.8817827E-2,4.1942317E-2,6.713488E-1,7.072216E-1,1.8614698E-3,3.8602293E-2,2.2863925E-2],"categories":[],"categories_nodes":[],"categories_segments":[],"categories_sizes":[],"default_left":[0,0,0,0,0,0,0,0,0],"id":65,"left_children":[1,3,-1,-1,5,7,-1,-1,-1],"loss_changes":[2.6911108E3,2.828369E-1,0E0,0E0,7.830105E-1,1.9166183E-1,0E0,0E0,0E0],"parents":[2147483647,0,0,1,1,4,4,5,5],"right_children":[2,4,-1,-1,6,8,-1,-1,-1],"split_conditions":[3.01E-1,2.98E-1,-2.8817827E-2,4.1942317E-2,8.87E2,5.7E-1,1.8614698E-3,3.8602293E-2,2.2863925E-2],"split_indices":[3,3,0,0,2,4,0,0,0],"split_type":[0,0,0,0,0,0,0,0,0],"sum_hessian":[5.621052E3,2.2407234E3,3.3803281E3,2.2061443E3,3.457912E1,3.2618572E1,1.9605482E0,2.4242302E1,8.37627E0],"tree_param":{"num_deleted":"0","num_feature":"9","num_nodes":"9","size_leaf_vector":"1"}},{"base_weights":[8.75306E-2,-2.9172903E-2,7.9453766E-1,-5.3956884E-1,8.1713E-1,-2.8770942E-2,-2.148496E-1,3.1147638E-1,8.201256E-1,2.9792422E-2,-2.428976E-2,3.850101E-2,-1.0352705E-2,2.4508137E-2,4.1070294E-2],"categories":[],"categories_nodes":[],"categories_segments":[],"categories_sizes":[],"default_left":[0,0,0,0,0,0,0,0,0,0,0,0,0,0,0],"id":66,"left_children":[1,-1,3,5,7,-1,9,11,13,-1,-1,-1,-1,-1,-1],"loss_changes":[2.9175479E3,0E0,9.069995E1,4.638996E-1,4.2055664E0,0E0,1.742231E0,4.666834E0,8.338623E-1,0E0,0E0,0E0,0E0,0E0,0E0],"parents":[2147483647,0,0,2,2,3,3,4,4,6,6,7,7,8,8],"right_children":[2,-1,4,6,8,-1,10,12,14,-1,-1,-1,-1,-1,-1],"split_conditions":[1.998E3,-2.9172903E-2,6.79E-1,8.06E1,6.82E-1,-2.8770942E-2,2.02E3,2.043E3,2.009E3,2.9792422E-2,-2.428976E-2,3.850101E-2,-1.0352705E-2,2.4508137E-2,4.1070294E-2],"split_indices":[1,0,3,5,3,0,1,1,1,0,0,0,0,0,0],"split_type":[0,0,0,0,0,0,0,0,0,0,0,0,0,0,0],"sum_hessian":[6.148078E3,3.1544785E3,2.9935994E3,4.9469746E1,2.9441296E3,4.3855873E1,5.6138725E0,1.7957052E1,2.9261726E3,1.1058643E0,4.508008E0,9.272365E0,8.684688E0,1.2793348E1,2.9133794E3],"tree_param":{"num_deleted":"0","num_feature":"9","num_nodes":"15","size_leaf_vector":"1"}},{"base_weights":[-1.8281057E-1,2.4112199E-1,-2.8394088E-2,-5.585894E-1,8.590175E-1,-2.8451165E-2,-1.01607814E-1,8.650196E-1,1.6897112E-1,-9.6415235E-3,3.2158908E-2,4.3353003E-2,2.9228797E-2,-1.7198516E-2,2.322913E-2],"categories":[],"categories_nodes":[],"categories_segments":[],"categories_sizes":[],"default_left":[0,0,0,0,0,0,0,0,0,0,0,0,0,0,0],"id":67,"left_children":[1,3,-1,5,7,-1,9,11,13,-1,-1,-1,-1,-1,-1],"loss_changes":[7.8559344E2,1.1325054E3,0E0,4.7062073E0,5.208069E0,0E0,1.7220664E0,2.263794E-1,2.0385797E0,0E0,0E0,0E0,0E0,0E0,0E0],"parents":[2147483647,0,0,1,1,3,3,4,4,6,6,7,7,8,8],"right_children":[2,4,-1,6,8,-1,10,12,14,-1,-1,-1,-1,-1,-1],"split_conditions":[5.15E0,3.01E-1,-2.8394088E-2,2.98E-1,4.51E1,-2.8451165E-2,8.41E2,4.72E0,5.35E2,-9.6415235E-3,3.2158908E-2,4.3353003E-2,2.9228797E-2,-1.7198516E-2,2.322913E-2],"split_indices":[4,3,0,3,5,0,2,4,2,0,0,0,0,0,0],"split_type":[0,0,0,0,0,0,0,0,0,0,0,0,0,0,0],"sum_hessian":[4.810542E3,2.2899092E3,2.5206328E3,9.981497E2,1.2917595E3,9.756288E2,2.2520905E1,1.2803691E3,1.1390425E1,2.072372E1,1.7971836E0,1.2690442E3,1.1324853E1,4.1045938E0,7.285831E0],"tree_param":{"num_deleted":"0","num_feature":"9","num_nodes":"15","size_leaf_vector":"1"}},{"base_weights":[6.90482E-2,-5.7612664E-1,3.3028346E-1,-2.88883E-2,-4.0046942E-1,7.771972E-1,-5.557642E-1,9.063255E-2,-2.7136767E-2,7.996545E-1,2.3677658E-1,6.591552E-1,-2.885007E-2,2.6154116E-2,-2.0013472E-2,-7.5240354E-3,4.0011343E-2,3.662694E-2,-2.8829051E-2,4.0177528E-2,-9.733565E-3],"categories":[],"categories_nodes":[],"categories_segments":[],"categories_sizes":[],"default_left":[0,0,0,0,0,0,0,0,0,0,0,0,0,0,0,0,0,0,0,0,0],"id":68,"left_children":[1,3,5,-1,7,9,11,13,-1,15,17,19,-1,-1,-1,-1,-1,-1,-1,-1,-1],"loss_changes":[9.877957E2,2.5506592E-1,1.6522942E3,0E0,1.3680854E0,3.3468506E1,3.6481842E1,1.2914326E0,0E0,1.5682373E0,4.561172E1,3.1776285E0,0E0,0E0,0E0,0E0,0E0,0E0,0E0,0E0,0E0],"parents":[2147483647,0,0,1,1,2,2,4,4,5,5,6,6,7,7,9,9,10,10,11,11],"right_children":[2,4,6,-1,8,10,12,14,-1,16,18,20,-1,-1,-1,-1,-1,-1,-1,-1,-1],"split_conditions":[4.51E1,4.25E-1,2.056E3,-2.88883E-2,4.15E-1,2.009E3,6.82E-1,3.3E-2,-2.7136767E-2,9.61E2,6.82E-1,8.08E1,-2.885007E-2,2.6154116E-2,-2.0013472E-2,-7.5240354E-3,4.0011343E-2,3.662694E-2,-2.8829051E-2,4.0177528E-2,-9.733565E-3],"split_indices":[5,8,1,0,3,1,3,7,0,1,3,5,0,0,0,0,0,0,0,0,0],"split_type":[0,0,0,0,0,0,0,0,0,0,0,0,0,0,0,0,0,0,0,0,0],"sum_hessian":[5.858684E3,1.6881763E3,4.170508E3,1.6702991E3,1.787721E1,2.7723066E3,1.3982013E3,4.097068E0,1.3780142E1,2.6612388E3,1.110679E2,2.3505114E1,1.3746962E3,2.1433635E0,1.9537042E0,1.4445597E0,2.6597942E3,6.906835E1,4.1999554E1,2.0155403E1,3.3497097E0],"tree_param":{"num_deleted":"0","num_feature":"9","num_nodes":"21","size_leaf_vector":"1"}},{"base_weights":[-1.2863482E-2,8.125941E-1,-2.8633645E-2,4.0778328E-2,6.2457114E-1,7.684879E-1,4.913231E-1,4.1800868E-2,2.1991735E-2,3.9159104E-2,1.41306715E-2],"categories":[],"categories_nodes":[],"categories_segments":[],"categories_sizes":[],"default_left":[0,0,0,0,0,0,0,0,0,0,0],"id":69,"left_children":[1,3,-1,-1,5,7,9,-1,-1,-1,-1],"loss_changes":[2.516554E3,7.2058105E-1,0E0,0E0,3.6112595E-1,3.9567947E-3,1.165947E0,0E0,0E0,0E0,0E0],"parents":[2147483647,0,0,1,1,4,4,5,5,6,6],"right_children":[2,4,-1,-1,6,8,10,-1,-1,-1,-1],"split_conditions":[3.01E-1,2.98E-1,-2.8633645E-2,4.0778328E-2,4.44E2,2.04E1,9.2E-1,4.1800868E-2,2.1991735E-2,3.9159104E-2,1.41306715E-2],"split_indices":[3,3,0,0,2,5,6,0,0,0,0],"split_type":[0,0,0,0,0,0,0,0,0,0,0],"sum_hessian":[5.4439126E3,2.1997932E3,3.2441196E3,2.1622722E3,3.7520992E1,1.5746438E1,2.1774555E1,1.1781822E1,3.9646158E0,7.931156E0,1.3843398E1],"tree_param":{"num_deleted":"0","num_feature":"9","num_nodes":"11","size_leaf_vector":"1"}},{"base_weights":[8.22259E-2,-5.7352895E-1,7.5768113E-1,-5.782593E-1,8.405445E-2,5.9629E-1,3.9852258E-2,-2.8943066E-2,-3.4077552E-1,2.6232788E-1,-3.7377018E-1,7.581493E-1,-2.8437292E-2,-2.0788347E-2,5.9236046E-3,-1.5430967E-2,3.0465493E-2,8.51269E-3,-2.5012901E-2,3.307076E-2,4.0253554E-2],"categories":[],"categories_nodes":[],"categories_segments":[],"categories_sizes":[],"default_left":[0,0,0,0,0,0,0,0,0,0,0,0,0,0,0,0,0,0,0,0,0],"id":70,"left_children":[1,3,5,7,9,11,-1,-1,13,15,17,19,-1,-1,-1,-1,-1,-1,-1,-1,-1],"loss_changes":[2.6371667E3,9.446045E0,1.8156982E1,2.3150635E-1,1.9303769E0,1.0962167E2,0E0,0E0,3.941915E-1,3.5055218E0,5.4650795E-1,1.7770691E0,0E0,0E0,0E0,0E0,0E0,0E0,0E0,0E0,0E0],"parents":[2147483647,0,0,1,1,2,2,3,3,4,4,5,5,8,8,9,9,10,10,11,11],"right_children":[2,4,6,8,10,12,-1,-1,14,16,18,20,-1,-1,-1,-1,-1,-1,-1,-1,-1],"split_conditions":[6.82E-1,6.79E-1,7.46E-1,8.06E1,8E0,9E0,3.9852258E-2,-2.8943066E-2,7.5E-2,4E0,8.4E-1,7.03E-1,-2.8437292E-2,-2.0788347E-2,5.9236046E-3,-1.5430967E-2,3.0465493E-2,8.51269E-3,-2.5012901E-2,3.307076E-2,4.0253554E-2],"split_indices":[3,3,3,5,0,0,0,0,7,0,6,3,0,0,0,0,0,0,0,0,0],"split_type":[0,0,0,0,0,0,0,0,0,0,0,0,0,0,0,0,0,0,0,0,0],"sum_hessian":[5.951891E3,3.0200627E3,2.9318284E3,2.9986125E3,2.1450037E1,5.780388E2,2.3537896E3,2.989597E3,9.015638E0,1.5745767E1,5.70427E0,5.078343E2,7.020455E1,7.8314967E0,1.1841419E0,5.9937735E0,9.751993E0,1.0108025E0,4.6934676E0,1.7080272E2,3.3703156E2],"tree_param":{"num_deleted":"0","num_feature":"9","num_nodes":"21","size_leaf_vector":"1"}},{"base_weights":[-1.8791784E-1,2.2604564E-1,-2.8233945E-2,-5.569885E-1,8.3514607E-1,-2.8286336E-2,-1.6497923E-1,4.1985713E-2,1.8321306E-1,-2.2729982E-2,2.3787455E-3,-1.3465099E-2,2.1995343E-2],"categories":[],"categories_nodes":[],"categories_segments":[],"categories_sizes":[],"default_left":[0,0,0,0,0,0,0,0,0,0,0,0,0],"id":71,"left_children":[1,3,-1,5,7,-1,9,-1,11,-1,-1,-1,-1],"loss_changes":[7.2594324E2,1.0583745E3,0E0,3.2330627E0,3.5628662E0,0E0,1.4120082E0,0E0,1.2757744E0,0E0,0E0,0E0,0E0],"parents":[2147483647,0,0,1,1,3,3,4,4,6,6,8,8],"right_children":[2,4,-1,6,8,-1,10,-1,12,-1,-1,-1,-1],"split_conditions":[5.15E0,3.01E-1,-2.8233945E-2,2.98E-1,4.53E-1,-2.8286336E-2,4.44E2,4.1985713E-2,4.24E-1,-2.2729982E-2,2.3787455E-3,-1.3465099E-2,2.1995343E-2],"split_indices":[4,3,0,3,8,0,2,0,3,0,0,0,0],"split_type":[0,0,0,0,0,0,0,0,0,0,0,0,0],"sum_hessian":[4.652698E3,2.2170884E3,2.4356096E3,9.700798E2,1.2470085E3,9.4849396E2,2.1585777E1,1.2380454E3,8.963225E0,8.654563E0,1.2931214E1,3.2264068E0,5.7368183E0],"tree_param":{"num_deleted":"0","num_feature":"9","num_nodes":"13","size_leaf_vector":"1"}},{"base_weights":[6.389644E-2,-2.8699968E-2,3.161436E-1,7.720696E-1,-4.353124E-1,9.4520174E-2,7.769309E-1,-3.476374E-2,-2.8580865E-2,3.1259056E-2,-8.916228E-3,3.9064053E-2,1.7295137E-2,-2.151057E-2,3.927288E-2],"categories":[],"categories_nodes":[],"categories_segments":[],"categories_sizes":[],"default_left":[0,0,0,0,0,0,0,0,0,0,0,0,0,0,0],"id":72,"left_children":[1,-1,3,5,7,9,11,13,-1,-1,-1,-1,-1,-1,-1],"loss_changes":[9.1824805E2,0E0,1.4013889E3,8.310913E0,8.432382E1,2.901884E0,4.468384E0,1.2790514E2,0E0,0E0,0E0,0E0,0E0,0E0,0E0],"parents":[2147483647,0,0,2,2,3,3,4,4,5,5,6,6,7,7],"right_children":[2,-1,4,6,8,10,12,14,-1,-1,-1,-1,-1,-1,-1],"split_conditions":[4.72E0,-2.8699968E-2,6.82E-1,5.15E0,7.46E-1,4.18E-1,6.79E-1,9E0,-2.8580865E-2,3.1259056E-2,-8.916228E-3,3.9064053E-2,1.7295137E-2,-2.151057E-2,3.927288E-2],"split_indices":[4,0,3,4,3,3,3,0,0,0,0,0,0,0,0],"split_type":[0,0,0,0,0,0,0,0,0,0,0,0,0,0,0],"sum_hessian":[5.704558E3,1.6161863E3,4.088372E3,2.5445227E3,1.5438491E3,1.82723E1,2.5262505E3,3.922956E2,1.1515536E3,5.7661877E0,1.2506112E1,2.5002048E3,2.6045656E1,2.650057E2,1.2728988E2],"tree_param":{"num_deleted":"0","num_feature":"9","num_nodes":"15","size_leaf_vector":"1"}},{"base_weights":[-6.1975787E-3,7.9161495E-1,-2.8458117E-2,3.971602E-2,5.847875E-1,6.8223786E-1,2.772027E-1,3.8843706E-2,1.8701255E-2,3.0754045E-2,3.47243E-3],"categories":[],"categories_nodes":[],"categories_segments":[],"categories_sizes":[],"default_left":[0,0,0,0,0,0,0,0,0,0,0],"id":73,"left_children":[1,3,-1,-1,5,7,9,-1,-1,-1,-1],"loss_changes":[2.363115E3,7.5354004E-1,0E0,0E0,7.6693726E-1,3.9597034E-1,6.142054E-1,0E0,0E0,0E0,0E0],"parents":[2147483647,0,0,1,1,4,4,5,5,6,6],"right_children":[2,4,-1,-1,6,8,10,-1,-1,-1,-1],"split_conditions":[3.01E-1,2.98E-1,-2.8458117E-2,3.971602E-2,6.89E2,5.7E-1,1.86E1,3.8843706E-2,1.8701255E-2,3.0754045E-2,3.47243E-3],"split_indices":[3,3,0,0,2,4,5,0,0,0,0],"split_type":[0,0,0,0,0,0,0,0,0,0,0],"sum_hessian":[5.259415E3,2.1756953E3,3.08372E3,2.1447993E3,3.0895851E1,2.2537401E1,8.35845E0,1.6079607E1,6.457794E0,2.4360278E0,5.9224224E0],"tree_param":{"num_deleted":"0","num_feature":"9","num_nodes":"11","size_leaf_vector":"1"}},{"base_weights":[8.656797E-2,-5.703667E-1,7.388503E-1,-2.8734744E-2,1.4131473E-2,5.7488537E-1,3.8872693E-2,-3.155426E-1,3.630394E-1,4.926008E-1,6.1618483E-1,-2.5626032E-2,2.0511677E-2,2.6063023E-2,-8.3611505E-3,6.687057E-3,2.4823777E-2,3.1863514E-2,2.6897674E-2],"categories":[],"categories_nodes":[],"categories_segments":[],"categories_sizes":[],"default_left":[0,0,0,0,0,0,0,0,0,0,0,0,0,0,0,0,0,0,0],"id":74,"left_children":[1,3,5,-1,7,9,-1,11,13,15,17,-1,-1,-1,-1,-1,-1,-1,-1],"loss_changes":[2.4984321E3,7.357239E0,1.8070923E1,0E0,2.6830115E0,1.6041412E0,0E0,1.9281042E0,1.0363326E0,2.0138931E-1,2.6715088E-1,0E0,0E0,0E0,0E0,0E0,0E0,0E0,0E0],"parents":[2147483647,0,0,1,1,2,2,4,4,5,5,7,7,8,8,9,9,10,10],"right_children":[2,4,6,-1,8,10,-1,12,14,16,18,-1,-1,-1,-1,-1,-1,-1,-1],"split_conditions":[6.82E-1,6.79E-1,7.46E-1,-2.8734744E-2,1.03E0,7.03E-1,3.8872693E-2,8.63E2,6.7E-2,8.1E-1,7.3E-2,-2.5626032E-2,2.0511677E-2,2.6063023E-2,-8.3611505E-3,6.687057E-3,2.4823777E-2,3.1863514E-2,2.6897674E-2],"split_indices":[3,3,3,0,6,3,0,2,7,6,7,0,0,0,0,0,0,0,0],"split_type":[0,0,0,0,0,0,0,0,0,0,0,0,0,0,0,0,0,0,0],"sum_hessian":[5.82857E3,2.9039917E3,2.9245781E3,2.8826624E3,2.132938E1,5.603662E2,2.364212E3,1.1016142E1,1.0313239E1,1.9158418E2,3.6878207E2,8.89566E0,2.1204808E0,7.9562187E0,2.3570201E0,2.425891E0,1.891583E2,2.848591E2,8.3922966E1],"tree_param":{"num_deleted":"0","num_feature":"9","num_nodes":"19","size_leaf_vector":"1"}},{"base_weights":[-1.8307593E-1,2.2533982E-1,-2.8081749E-2,-5.524802E-1,8.1189364E-1,-2.8128603E-2,-1.3003568E-1,4.0860157E-2,7.741113E-2,-2.4664013E-2,8.2555984E-4,2.619282E-2,-1.3031626E-2],"categories":[],"categories_nodes":[],"categories_segments":[],"categories_sizes":[],"default_left":[0,0,0,0,0,0,0,0,0,0,0,0,0],"id":75,"left_children":[1,3,-1,5,7,-1,9,-1,11,-1,-1,-1,-1],"loss_changes":[6.9840314E2,9.9195105E2,0E0,3.912506E0,4.7698364E0,0E0,1.2385073E0,0E0,1.6456176E0,0E0,0E0,0E0,0E0],"parents":[2147483647,0,0,1,1,3,3,4,4,6,6,8,8],"right_children":[2,4,-1,6,8,-1,10,-1,12,-1,-1,-1,-1],"split_conditions":[5.15E0,3.01E-1,-2.8081749E-2,2.98E-1,4.53E-1,-2.8128603E-2,1.8E-1,4.0860157E-2,9.1E-1,-2.4664013E-2,8.2555984E-4,2.619282E-2,-1.3031626E-2],"split_indices":[4,3,0,3,8,0,8,0,6,0,0,0,0],"split_type":[0,0,0,0,0,0,0,0,0,0,0,0,0],"sum_hessian":[4.5153896E3,2.1722356E3,2.343154E3,9.338842E2,1.2383514E3,9.117711E2,2.211306E1,1.229352E3,8.999361E0,5.67657E0,1.6436491E1,3.6410508E0,5.35831E0],"tree_param":{"num_deleted":"0","num_feature":"9","num_nodes":"13","size_leaf_vector":"1"}},{"base_weights":[6.452317E-2,-2.8519282E-2,3.134364E-1,7.379437E-1,-5.471614E-1,7.5927764E-1,1.9982322E-1,2.8402948E-1,-5.673813E-1,6.156919E-3,3.8192727E-2,2.7521072E-2,-2.8044665E-2,2.8921667E-2,-2.63117E-2,-1.3346272E-2,-2.8474469E-2],"categories":[],"categories_nodes":[],"categories_segments":[],"categories_sizes":[],"default_left":[0,0,0,0,0,0,0,0,0,0,0,0,0,0,0,0,0],"id":76,"left_children":[1,-1,3,5,7,9,11,13,15,-1,-1,-1,-1,-1,-1,-1,-1],"loss_changes":[8.803714E2,0E0,1.462313E3,3.0617432E1,2.2386536E1,7.4107666E0,2.792931E1,7.9550495E0,6.659241E-1,0E0,0E0,0E0,0E0,0E0,0E0,0E0,0E0],"parents":[2147483647,0,0,2,2,3,3,4,4,5,5,6,6,7,7,8,8],"right_children":[2,-1,4,6,8,10,12,14,16,-1,-1,-1,-1,-1,-1,-1,-1],"split_conditions":[4.72E0,-2.8519282E-2,2.056E3,2.009E3,8.08E1,5.15E0,8.16E-1,3E0,8.16E-1,6.156919E-3,3.8192727E-2,2.7521072E-2,-2.8044665E-2,2.8921667E-2,-2.63117E-2,-1.3346272E-2,-2.8474469E-2],"split_indices":[4,0,1,1,5,4,8,0,8,0,0,0,0,0,0,0,0],"split_type":[0,0,0,0,0,0,0,0,0,0,0,0,0,0,0,0,0],"sum_hessian":[5.5685283E3,1.5679161E3,4.000612E3,2.67919E3,1.3214222E3,2.576628E3,1.0256197E2,3.1072226E1,1.2903501E3,1.860506E1,2.5580227E3,7.03949E1,3.2167076E1,2.3001059E1,8.071166E0,9.879218E0,1.2804708E3],"tree_param":{"num_deleted":"0","num_feature":"9","num_nodes":"17","size_leaf_vector":"1"}},{"base_weights":[-7.494237E-3,7.7244365E-1,-2.8293109E-2,3.8751684E-2,5.9015447E-1,7.0662075E-1,3.572146E-1,3.6627736E-2,1.0357725E-2,-5.585681E-3,2.3708293E-2],"categories":[],"categories_nodes":[],"categories_segments":[],"categories_sizes":[],"default_left":[0,0,0,0,0,0,0,0,0,0,0],"id":77,"left_children":[1,3,-1,-1,5,7,9,-1,-1,-1,-1],"loss_changes":[2.2346382E3,5.534668E-1,0E0,0E0,6.749859E-1,1.3020134E-1,7.88772E-1,0E0,0E0,0E0,0E0],"parents":[2147483647,0,0,1,1,4,4,5,5,6,6],"right_children":[2,4,-1,-1,6,8,10,-1,-1,-1,-1],"split_conditions":[3.01E-1,2.98E-1,-2.8293109E-2,3.8751684E-2,4.6E-1,8.73E2,2.3E-2,3.6627736E-2,1.0357725E-2,-5.585681E-3,2.3708293E-2],"split_indices":[3,3,0,0,4,2,7,0,0,0,0],"split_type":[0,0,0,0,0,0,0,0,0,0,0],"sum_hessian":[5.129288E3,2.1398813E3,2.9894065E3,2.1066973E3,3.318411E1,2.0767298E1,1.2416812E1,1.9298578E1,1.4687201E0,2.4875412E0,9.929271E0],"tree_param":{"num_deleted":"0","num_feature":"9","num_nodes":"11","size_leaf_vector":"1"}},{"base_weights":[8.6953886E-2,-5.7068026E-1,7.1633923E-1,-2.8566847E-2,-3.1311125E-1,5.415756E-1,3.7967872E-2,-3.9380896E-1,7.1572685E-3,6.960368E-1,-2.8273126E-2,5.8078445E-3,-2.4877338E-2,2.8785119E-2,3.8436163E-2],"categories":[],"categories_nodes":[],"categories_segments":[],"categories_sizes":[],"default_left":[0,0,0,0,0,0,0,0,0,0,0,0,0,0,0],"id":78,"left_children":[1,3,5,-1,7,9,-1,11,-1,13,-1,-1,-1,-1,-1],"loss_changes":[2.3468755E3,2.901001E-1,2.1369751E1,0E0,3.9745343E-1,9.8846664E1,0E0,4.8832226E-1,0E0,3.9807892E0,0E0,0E0,0E0,0E0,0E0],"parents":[2147483647,0,0,1,1,2,2,4,4,5,5,7,7,9,9],"right_children":[2,4,6,-1,8,10,-1,12,-1,14,-1,-1,-1,-1,-1],"split_conditions":[6.79E-1,8.06E1,7.46E-1,-2.8566847E-2,7.3E-2,9E0,3.7967872E-2,1.2E-2,7.1572685E-3,7.03E-1,-2.8273126E-2,5.8078445E-3,-2.4877338E-2,2.8785119E-2,3.8436163E-2],"split_indices":[3,5,3,0,7,0,0,7,0,3,0,0,0,0,0],"split_type":[0,0,0,0,0,0,0,0,0,0,0,0,0,0,0],"sum_hessian":[5.6680903E3,2.7718862E3,2.8962039E3,2.7636226E3,8.263767E0,5.747677E2,2.3214363E3,7.138123E0,1.125644E0,5.0471747E2,7.005021E1,1.1863607E0,5.951762E0,1.934221E2,3.1129535E2],"tree_param":{"num_deleted":"0","num_feature":"9","num_nodes":"15","size_leaf_vector":"1"}},{"base_weights":[-1.841071E-1,2.1156634E-1,-2.793627E-2,-5.534381E-1,7.892676E-1,-2.7980218E-2,-2.740338E-1,3.9775394E-2,1.7420022E-1,-2.4550913E-2,-2.5923635E-4,-2.2304134E-2,1.7275563E-2],"categories":[],"categories_nodes":[],"categories_segments":[],